{"layers":[{"out_depth":1,"out_sx":50,"out_sy":25,"layer_type":"input"},{"sx":2,"sy":2,"stride":1,"in_depth":1,"out_depth":25,"out_sx":53,"out_sy":28,"layer_type":"conv","l1_decay_mul":0,"l2_decay_mul":1,"pad":2,"filters":[{"sx":2,"sy":2,"depth":1,"w":{"0":1.3697310760959507,"1":-0.2435058214516513,"2":-1.1129303894046978,"3":-0.17364137427447363}},{"sx":2,"sy":2,"depth":1,"w":{"0":-0.34176306547920543,"1":0.24509170519561171,"2":0.466502251010375,"3":0.046490964479206656}},{"sx":2,"sy":2,"depth":1,"w":{"0":0.2669090347512658,"1":-0.3498842340736086,"2":0.2188629138885318,"3":-0.7965110101307872}},{"sx":2,"sy":2,"depth":1,"w":{"0":-0.12614950919992013,"1":-0.2339473834445272,"2":-0.1749273942693273,"3":-0.4014606006813185}},{"sx":2,"sy":2,"depth":1,"w":{"0":-0.025581525421688085,"1":0.7899205122064756,"2":0.08800115582081597,"3":0.4910720225419774}},{"sx":2,"sy":2,"depth":1,"w":{"0":-0.04291788761376247,"1":-1.3789014675392925,"2":0.33659988082602843,"3":-0.3987083568778775}},{"sx":2,"sy":2,"depth":1,"w":{"0":-0.09130731768941415,"1":0.7791340274587474,"2":0.5450369943520293,"3":0.05487834231333063}},{"sx":2,"sy":2,"depth":1,"w":{"0":0.11527942064813702,"1":-0.5091265181253657,"2":0.32312148666662854,"3":0.06864674541241092}},{"sx":2,"sy":2,"depth":1,"w":{"0":0.6160464360518355,"1":-0.03415218899447304,"2":0.39122464718514866,"3":-0.46872006567482705}},{"sx":2,"sy":2,"depth":1,"w":{"0":0.3419563313028287,"1":0.46215101696173977,"2":0.9521835818325751,"3":-0.9924648964229251}},{"sx":2,"sy":2,"depth":1,"w":{"0":0.37385752652617393,"1":-0.2943288410424306,"2":0.453801004732721,"3":-1.3045206650154386}},{"sx":2,"sy":2,"depth":1,"w":{"0":0.06977723554052413,"1":0.8398888424781278,"2":0.34244779950477344,"3":-0.38569992544767073}},{"sx":2,"sy":2,"depth":1,"w":{"0":0.5740858095684299,"1":-1.2681064699701572,"2":-0.4184621903556565,"3":0.22195968789403328}},{"sx":2,"sy":2,"depth":1,"w":{"0":-0.6152705866385099,"1":-0.08425563218902335,"2":-0.42414723940941146,"3":-0.08807479496961174}},{"sx":2,"sy":2,"depth":1,"w":{"0":0.8171999826135076,"1":0.9952332885227881,"2":0.2619657889489573,"3":0.8352203065673942}},{"sx":2,"sy":2,"depth":1,"w":{"0":0.5349752821613418,"1":-0.09309525759057474,"2":-0.5314799569319331,"3":-0.17661411905422447}},{"sx":2,"sy":2,"depth":1,"w":{"0":-0.11305751286449385,"1":0.3514324915344494,"2":-0.031774993768543286,"3":0.6139318317027668}},{"sx":2,"sy":2,"depth":1,"w":{"0":0.6694310542017846,"1":0.79939468247945,"2":-0.6008915704335914,"3":-0.8387634985818938}},{"sx":2,"sy":2,"depth":1,"w":{"0":0.6390355641147459,"1":-0.7618491198225426,"2":0.44960470373931766,"3":-0.6836148174592066}},{"sx":2,"sy":2,"depth":1,"w":{"0":0.1265503624450073,"1":0.10420101232338859,"2":-0.027798839038281842,"3":0.8586930775285957}},{"sx":2,"sy":2,"depth":1,"w":{"0":-0.31285783813281237,"1":-0.10696591023234268,"2":-0.4767213587764083,"3":0.5785236319335721}},{"sx":2,"sy":2,"depth":1,"w":{"0":-0.13831276764273678,"1":-0.138117061320777,"2":0.09219163765284086,"3":0.7513580546926356}},{"sx":2,"sy":2,"depth":1,"w":{"0":-0.38434033869968937,"1":0.10707558198932039,"2":-0.2548904975798034,"3":0.8896434261162841}},{"sx":2,"sy":2,"depth":1,"w":{"0":-0.12296915841057214,"1":-0.33389845788731365,"2":-1.1900375518755097,"3":0.025367870322831908}},{"sx":2,"sy":2,"depth":1,"w":{"0":1.2565403868392246,"1":0.17997127157031342,"2":-0.4548115134840958,"3":-0.3148077103152759}}],"biases":{"sx":1,"sy":1,"depth":25,"w":{"0":0.1,"1":0.1,"2":0.1,"3":0.1,"4":0.1,"5":0.1,"6":0.1,"7":0.1,"8":0.1,"9":0.1,"10":0.1,"11":0.1,"12":0.1,"13":0.1,"14":0.1,"15":0.1,"16":0.1,"17":0.1,"18":0.1,"19":0.1,"20":0.1,"21":0.1,"22":0.1,"23":0.1,"24":0.1}}},{"out_depth":25,"out_sx":53,"out_sy":28,"layer_type":"relu"},{"sx":2,"sy":2,"stride":2,"in_depth":25,"out_depth":25,"out_sx":26,"out_sy":14,"layer_type":"pool","pad":0},{"sx":3,"sy":3,"stride":1,"in_depth":25,"out_depth":50,"out_sx":28,"out_sy":16,"layer_type":"conv","l1_decay_mul":0,"l2_decay_mul":1,"pad":2,"filters":[{"sx":3,"sy":3,"depth":25,"w":{"0":0.04829722221693223,"1":0.09863136216932991,"2":-0.07088377865660836,"3":0.03995655110632346,"4":-0.04839105249571643,"5":0.05750955284480422,"6":-0.08373455974236972,"7":-0.03674391009354431,"8":0.04232661997188935,"9":0.06931376348197099,"10":0.06752397359243627,"11":-0.030584523001541516,"12":-0.00871118141995524,"13":-0.05149412883484203,"14":0.008687673643884354,"15":-0.06334252296962449,"16":-0.11428013621886787,"17":0.005883711942791217,"18":0.02269086791593307,"19":-0.026456755080561507,"20":-0.022134158745419203,"21":-0.045371382362636124,"22":0.07663535479710475,"23":-0.07902375524205796,"24":0.05854440407503806,"25":0.027914509100031997,"26":0.20112090981201788,"27":-0.0009872480317133336,"28":-0.01281297311103494,"29":-0.11644455005616798,"30":-0.015733734970021174,"31":-0.044275862438327235,"32":-0.1381546994000327,"33":0.09011909664430423,"34":-0.0226269216302181,"35":-0.17601976555058738,"36":0.009860819296621132,"37":-0.02903276545771725,"38":0.022967800512050007,"39":0.15927707106316788,"40":0.03274587704750801,"41":-0.015744352755063324,"42":-0.0967243819143536,"43":0.1086428241017494,"44":-0.0960535332322105,"45":-0.021442199131337783,"46":0.04167130670284599,"47":0.038891457300515755,"48":0.06144112401497852,"49":0.06892075322332421,"50":-0.0025580563088252865,"51":0.000012940590095683534,"52":-0.03154540243357623,"53":-0.08674479906774567,"54":0.06630164888455492,"55":0.08995307081747192,"56":-0.04973694889922096,"57":0.05979823527053371,"58":0.04320338235411008,"59":-0.039612623285870244,"60":-0.09993476292749233,"61":0.03798544183030343,"62":-0.1074829721634994,"63":-0.015195506723902595,"64":-0.04793379100571495,"65":-0.11405106224818785,"66":-0.03330092801002691,"67":-0.06585208216544687,"68":0.018120021940709826,"69":-0.043318063638842455,"70":-0.006202619914034039,"71":0.11664263590185552,"72":0.06198952772906546,"73":-0.11246077342793509,"74":-0.10622060552855422,"75":-0.06536849725605436,"76":-0.01132067085648283,"77":0.01973958923203834,"78":0.026931831043420288,"79":-0.03947594080272169,"80":0.08773436721282177,"81":-0.028296509426201478,"82":-0.128484946383542,"83":0.033407142088593154,"84":0.05333311885155144,"85":-0.07897379786210351,"86":-0.034858812344763616,"87":0.12177030869617261,"88":0.10778861623518944,"89":0.02658908752068419,"90":-0.0062600542945679735,"91":-0.10570268718647587,"92":-0.08891170178410818,"93":-0.09319011211407813,"94":0.012612992087239544,"95":-0.03802775379999558,"96":-0.054538430833414094,"97":0.044471030602575456,"98":-0.02221702414433955,"99":-0.014104787506299381,"100":0.04672167619921701,"101":-0.04891930635304791,"102":-0.04588068268000497,"103":0.08581604666576069,"104":0.01856574246335842,"105":-0.019956175962280404,"106":0.06445268383387467,"107":0.03952763955170569,"108":-0.0378871210538165,"109":0.03119065361196863,"110":-0.022280401340770292,"111":0.03526468686825281,"112":0.11150025118340529,"113":0.04300989926697785,"114":-0.04921013480543025,"115":0.013117555316509303,"116":0.09719007038995482,"117":-0.05378661904044221,"118":-0.012481475153767914,"119":-0.03702422433678384,"120":-0.0567490102103907,"121":-0.10467378855038548,"122":-0.031391129278779274,"123":-0.017619934971872645,"124":-0.0010379154009715994,"125":-0.09532809856976773,"126":0.0012462015076543575,"127":0.010658908159670154,"128":-0.09976637078845602,"129":0.13222276902116656,"130":0.01987940240880792,"131":-0.032097105864551785,"132":-0.033412580075438694,"133":0.10452933202724471,"134":0.06189481165291608,"135":0.1662637722747954,"136":-0.04575728928193746,"137":0.13792807419091227,"138":-0.00003607187109319205,"139":0.015330005529877032,"140":0.17072939353940586,"141":-0.07861799315115432,"142":-0.09752032894711442,"143":-0.01212021555710475,"144":-0.041609390706781796,"145":0.15686425280924862,"146":0.0961433235957289,"147":0.06703442368236245,"148":0.05079421512998641,"149":-0.04991431595932146,"150":0.02648870279665821,"151":-0.03285052144700255,"152":-0.04228869496199239,"153":0.017510312024597633,"154":-0.15321547312823727,"155":-0.004441463362557465,"156":-0.0779876275240248,"157":-0.04358855751649127,"158":0.0021351075341829126,"159":0.14094172454704856,"160":-0.054065922216694685,"161":-0.01222226375532575,"162":0.035804976939216554,"163":0.0970947965352581,"164":0.030138548029391428,"165":0.01569878491076289,"166":-0.01623277810234654,"167":0.050139626311713,"168":-0.03707146050440479,"169":-0.01327169702096703,"170":-0.017473645647190776,"171":-0.003766607865659188,"172":-0.0373223672672804,"173":0.021826148497079,"174":0.008684563694129975,"175":0.15383798995294884,"176":0.004476791093612088,"177":-0.10088628707672645,"178":-0.04577304670305628,"179":-0.08209808728882959,"180":0.0020018758360086904,"181":0.00826434023245941,"182":-0.028870405157546623,"183":-0.00030864811724973994,"184":0.0788013233177706,"185":0.014679115775739774,"186":-0.0463308776868972,"187":0.045037071277582164,"188":-0.0062794504479905785,"189":0.02421122763570869,"190":-0.01627991402757811,"191":-0.07914711068611274,"192":-0.005306890568711829,"193":-0.0670004998478506,"194":0.03904542089340617,"195":-0.17959002029195797,"196":-0.028549919054524347,"197":-0.061202577905417735,"198":0.1081308745841894,"199":-0.015460174009570681,"200":0.006101166587063867,"201":0.07584867614272991,"202":-0.05231034622689997,"203":0.04389639318052533,"204":-0.039721760981394696,"205":0.20178588975294984,"206":-0.010738470931420226,"207":0.061187261775874524,"208":0.00558610685460061,"209":0.06907337344261313,"210":0.010779152595176115,"211":0.14251772798116344,"212":0.008940094284894722,"213":-0.0032998076047292624,"214":-0.003413616009591578,"215":0.07068299901191356,"216":0.026080615517798566,"217":-0.049588008978667164,"218":0.091105997233189,"219":0.076676461174634,"220":0.04320465124778313,"221":-0.09508039171943186,"222":-0.09776791059463848,"223":-0.019938876814831273,"224":0.022098932218267434}},{"sx":3,"sy":3,"depth":25,"w":{"0":0.02010458274155055,"1":0.12844442056058641,"2":0.019558108186385693,"3":-0.04712488399898247,"4":-0.022136553219448615,"5":0.08895387580144146,"6":-0.07131765271904615,"7":0.058292645634441254,"8":-0.014937980097117602,"9":0.017325691780894086,"10":0.0773854430051707,"11":0.14665536247426564,"12":0.09048419697616288,"13":0.05688920903019002,"14":0.06688034169924696,"15":0.024698578720538572,"16":-0.037360207916213854,"17":-0.060129808263782426,"18":0.019930688026072986,"19":-0.057714959640351775,"20":0.026345255615958966,"21":-0.025040194271515714,"22":0.008701092743579488,"23":-0.052515769574160015,"24":-0.03359484326778848,"25":0.031193774322340644,"26":0.022406875218511,"27":0.12386024164647041,"28":0.07551181332757298,"29":0.02223275426545678,"30":-0.10518262664502433,"31":-0.029179254835834743,"32":-0.01579773734044476,"33":-0.00525123631458988,"34":-0.04488649016864054,"35":0.013194697541962397,"36":0.06822407311177205,"37":0.05119413023518261,"38":-0.06076835697844623,"39":-0.02935044460759477,"40":-0.09316771955488029,"41":0.055609198168627125,"42":0.0030131097979113723,"43":0.022868497772473222,"44":0.015029520143310143,"45":-0.007007638888260596,"46":0.07586483746869786,"47":-0.048523487558297176,"48":0.013783572028599238,"49":0.14236284349545172,"50":-0.0314893609971501,"51":-0.020413889939335014,"52":0.019565521620076128,"53":-0.026188024142390486,"54":-0.12202052575078477,"55":0.06068058817005257,"56":-0.16787180344923486,"57":0.12735338787752426,"58":0.00684946820613996,"59":-0.12081089270891841,"60":0.011253945120760753,"61":-0.06400005071353294,"62":0.029504559632378243,"63":0.006772088306238663,"64":-0.03462817091829495,"65":-0.036952932586172355,"66":-0.029089452715362864,"67":-0.005442626593142275,"68":0.06952584705764381,"69":-0.19307747177812268,"70":0.1489740558170686,"71":-0.037157925619947005,"72":-0.01786593816867766,"73":0.05895128805524477,"74":0.0860128751951652,"75":-0.027788951989621183,"76":0.11600482060973955,"77":0.067961527203918,"78":-0.12099839057950125,"79":0.004461587547714871,"80":-0.028432801283300307,"81":-0.06316189834934456,"82":-0.08813108740563388,"83":0.15588142269555455,"84":-0.019162057627442868,"85":-0.09863820046079405,"86":-0.07437972240769139,"87":0.13732062922203944,"88":-0.10736772378875202,"89":0.029418299441604245,"90":-0.020236863567085723,"91":-0.06936353337617428,"92":-0.07570455053215407,"93":-0.07718706656508403,"94":-0.15944033193772858,"95":0.06873497382295687,"96":0.05587969750066198,"97":-0.03416279795398904,"98":-0.06337341867064955,"99":-0.008660841473308511,"100":0.024524421027809537,"101":-0.039779144089505766,"102":-0.028127079792480324,"103":0.05864615412160877,"104":-0.050748775833657035,"105":-0.010634170164516905,"106":0.016830868402038273,"107":-0.1011224105911709,"108":-0.021871606244482044,"109":-0.0644308958163381,"110":-0.06310760557459504,"111":0.058416099030612796,"112":-0.024606001091022907,"113":-0.034836778966769184,"114":-0.07691173735190616,"115":-0.09001160530853054,"116":-0.01986858972168372,"117":-0.031027886500053864,"118":-0.008805577745685645,"119":0.16245642201566754,"120":-0.06335356677359509,"121":-0.05223790235867465,"122":-0.19408070723291837,"123":0.05266819704669897,"124":0.0669373503739459,"125":0.11507477984548002,"126":-0.08874347348209853,"127":0.04604225994830566,"128":-0.06905852826503509,"129":0.055867898015834104,"130":0.01757073000755776,"131":0.09016579365242913,"132":0.0663132690240576,"133":-0.02918416189352003,"134":0.033347382063414255,"135":-0.013910064097705057,"136":0.03767938958272901,"137":-0.06618487619454817,"138":-0.12534122278229462,"139":-0.03293539154072621,"140":-0.002699619739136481,"141":-0.0501732133346762,"142":-0.05841812966899936,"143":0.016623066803525533,"144":-0.019943133813457678,"145":0.0483678557108863,"146":0.04488097594908806,"147":-0.06992739218873306,"148":0.028765590038444578,"149":-0.03925168268515308,"150":0.053310477428618816,"151":-0.06152190456821902,"152":-0.0534331871389526,"153":-0.041753032866143826,"154":0.02013873429507947,"155":-0.14248868745238594,"156":0.0033817221456530614,"157":-0.04060211957809973,"158":0.004335651203533522,"159":-0.10634375935596,"160":-0.0568000998081456,"161":-0.043388884110033096,"162":-0.06710382075469368,"163":0.013880036310630945,"164":-0.02575351432153918,"165":-0.05957916442512032,"166":0.059296073745729296,"167":0.08846623595235115,"168":-0.020395240905363175,"169":-0.059701817103566805,"170":0.03207605443919476,"171":-0.0650388199332078,"172":0.005447994272321705,"173":-0.003894162602582694,"174":0.006997044057688,"175":0.07636818237527837,"176":-0.01076239711524599,"177":-0.10879515657197744,"178":-0.010311518256643518,"179":-0.05941626274026684,"180":-0.10168200286172967,"181":-0.01252135117440861,"182":-0.052649714437441764,"183":0.0073866920030196135,"184":-0.009711101917443262,"185":0.12909033597685682,"186":0.07679562844647587,"187":0.12735736278205012,"188":-0.022899946121459,"189":0.030943138153558,"190":-0.008254373544519819,"191":0.10055071951730178,"192":-0.026329791372924367,"193":-0.0527458048174139,"194":0.1123967559256693,"195":-0.039655161332611696,"196":-0.021806906152925597,"197":0.14596458104238344,"198":0.07455182926963279,"199":-0.09685205262594035,"200":0.011042067926073616,"201":-0.0579653785265337,"202":-0.032442639900256615,"203":-0.07363286950056105,"204":0.04623519174930847,"205":-0.13770920398491218,"206":0.047901078895488565,"207":0.07050195516675171,"208":0.006116646683675527,"209":0.05709776510306868,"210":0.01840997441534548,"211":-0.005244513639196808,"212":-0.16783796914590052,"213":-0.08230977358004343,"214":-0.035979396407320646,"215":0.03093837507828927,"216":-0.05632926296566313,"217":0.04137524716963884,"218":0.08806042456468839,"219":0.031198354410353794,"220":-0.039971004487414634,"221":0.004083037769009314,"222":-0.04213028703935827,"223":-0.03647617406238802,"224":-0.04830723205025517}},{"sx":3,"sy":3,"depth":25,"w":{"0":0.004588964141039653,"1":0.021340209762113194,"2":-0.004261855349099723,"3":-0.08262504902208809,"4":0.07287004836082119,"5":-0.11539171729808995,"6":0.00402862392754606,"7":0.02229925162456142,"8":0.07431673222201535,"9":-0.06444313975473012,"10":0.06032189185321291,"11":-0.056092385009352985,"12":0.01697347565958654,"13":0.019660104799751745,"14":0.1213673171784433,"15":-0.0018979593325576833,"16":0.16678986419393133,"17":0.07211607611420523,"18":-0.023613356111952734,"19":-0.06427981244685764,"20":0.032182268835118995,"21":-0.007704185695669882,"22":0.11942549425455104,"23":0.1115103295873011,"24":0.002781336909686988,"25":0.07822140345669784,"26":-0.05483532993435458,"27":-0.01815175876909803,"28":0.028761340505199153,"29":0.06937339091694508,"30":0.0449504352997585,"31":0.05658992837672378,"32":-0.07209905552921522,"33":0.010379272695685705,"34":-0.031974839541798125,"35":0.006420269969450312,"36":0.014034914429729617,"37":0.050347842486191,"38":-0.03143398589686391,"39":-0.07088386086262959,"40":0.0076637657098797985,"41":-0.029159926807351886,"42":0.0701838392856395,"43":-0.0018704482270676113,"44":-0.06275908167904942,"45":-0.014879602492763508,"46":-0.1179461230686408,"47":0.05938254395503449,"48":0.08018308240658419,"49":0.013737728294962314,"50":-0.08661784615682495,"51":0.04803444843109499,"52":-0.018815889843225728,"53":0.00968929393466798,"54":-0.16839777722083768,"55":-0.04861581617816736,"56":0.08024171709738173,"57":-0.03340230635383188,"58":0.04609576649477023,"59":-0.015258790839103656,"60":0.046377172352943356,"61":-0.14014922193549934,"62":-0.026875443231132293,"63":-0.012180692604249824,"64":-0.05001804067135916,"65":-0.053999497720710186,"66":0.11929236491629493,"67":-0.07524305815614853,"68":-0.02087492734041363,"69":0.03443468096122902,"70":0.016643829165427268,"71":0.0019977545992082703,"72":0.006744811968747313,"73":-0.06281305496912278,"74":0.06014748666273363,"75":0.0191838424529608,"76":-0.027359376601683166,"77":0.06074413998828996,"78":0.007766486831959574,"79":-0.018113201020173778,"80":0.013371004243374963,"81":-0.04572135619002845,"82":-0.10350585111049275,"83":0.11395021468623753,"84":-0.02155217386727471,"85":-0.1485332797454907,"86":-0.05147151071207488,"87":-0.04787945859444383,"88":-0.030814196959617412,"89":-0.009901144899237092,"90":0.053466088523006404,"91":-0.019001059012694377,"92":-0.017912354944850106,"93":0.033720352933614264,"94":0.037659210602828896,"95":-0.06882072497869049,"96":0.12503926108346775,"97":0.018904555866643535,"98":-0.08050236450665388,"99":0.04297442234255483,"100":-0.01563014373850405,"101":-0.06382838539373152,"102":-0.04594333315726364,"103":0.023529329006658828,"104":-0.08952360292609074,"105":0.021461491901451395,"106":0.07951584848783595,"107":-0.08699338004247158,"108":0.07935686750162736,"109":0.02601391380415427,"110":0.01845816324998073,"111":-0.015052011139499272,"112":0.04039824914239847,"113":-0.06505774130876145,"114":-0.012500986825386536,"115":0.10509564386822574,"116":-0.017943472619578696,"117":0.04516825439383165,"118":0.061198577478498974,"119":0.04659005276931566,"120":-0.031578973676987046,"121":0.021033759231165267,"122":0.025661034669441515,"123":0.06437173785197779,"124":-0.058905372289496806,"125":0.032102700095005175,"126":0.07437466120330988,"127":0.11177455526661227,"128":-0.13405482142489616,"129":0.02837195166806156,"130":-0.053242398182983784,"131":-0.012806312197740727,"132":0.061703679672234175,"133":0.04732714714336222,"134":0.14185969215144933,"135":-0.003587264467564935,"136":-0.0275229827086213,"137":-0.09456666790932353,"138":-0.08333968377119619,"139":0.031613318887447964,"140":-0.01791145764059482,"141":-0.061967760578277076,"142":0.1298853050892324,"143":0.002306928735986951,"144":-0.052535778693887536,"145":0.014385611591039585,"146":0.07158929847339779,"147":-0.04471566763962753,"148":-0.07009214363287601,"149":-0.029542597126775275,"150":-0.033143826160289935,"151":-0.0318786426113,"152":0.0030664246171952744,"153":-0.09030299020685685,"154":0.017509198751958506,"155":-0.0005905695896803576,"156":-0.001527408549782064,"157":-0.1136261860675241,"158":-0.034328422948222435,"159":0.01899924688332148,"160":-0.08098680517756217,"161":-0.048310041681027455,"162":-0.1260319900085376,"163":-0.08391686050423881,"164":0.028758633786607177,"165":0.0020418501018623684,"166":-0.03387684188835675,"167":0.08112280402534601,"168":0.1026465506147687,"169":-0.010321136093078281,"170":-0.005916315633993271,"171":-0.053938961966350916,"172":0.08925970290995049,"173":-0.08715999144540983,"174":0.017117896485448182,"175":0.016626009117721663,"176":0.08541837379456413,"177":0.06940273634803405,"178":-0.10665778595538637,"179":0.02639364253778922,"180":-0.010348638370124898,"181":-0.07868059834907024,"182":0.0400601154178047,"183":0.05391316524928169,"184":-0.027505877972400224,"185":0.07556240930956715,"186":-0.15164435128371223,"187":0.07500136948978776,"188":0.07002467963754454,"189":-0.04811726834961262,"190":-0.011704295516989132,"191":-0.05101683631042024,"192":-0.11424739891411531,"193":-0.0076439225066684624,"194":-0.02612282321482718,"195":0.004229601463587826,"196":-0.04653859021967638,"197":0.044969167346178715,"198":-0.12218666904081575,"199":-0.0938300386521399,"200":-0.04045845242679964,"201":-0.03923411685305105,"202":-0.07381262881124871,"203":-0.10001961774181549,"204":0.03801135060074273,"205":-0.061395372941030917,"206":0.03886583718896552,"207":0.12477491289574545,"208":-0.07065656719988307,"209":0.0683516346418625,"210":-0.06410637438549037,"211":-0.07567724073036815,"212":-0.006599392355984796,"213":-0.0763588692304851,"214":0.055528699204741,"215":-0.09264288439128536,"216":-0.010568240186168604,"217":0.06231269029406652,"218":-0.01229038047847452,"219":-0.1434499374552383,"220":0.14958735391467878,"221":0.04730517617917096,"222":0.060199689132295606,"223":0.040825056519337176,"224":-0.0024248980263164677}},{"sx":3,"sy":3,"depth":25,"w":{"0":0.05377783785569848,"1":0.04817523467810947,"2":-0.1589072693406767,"3":0.027256415911621177,"4":0.07278197892061361,"5":0.08629912057947775,"6":0.09622711923274858,"7":-0.01683373391765523,"8":-0.03552458716701432,"9":0.009874000197708198,"10":0.14474173543737356,"11":0.02745612367745106,"12":0.009468051334479761,"13":0.030679547615754883,"14":0.023056557117525904,"15":0.07477179980723259,"16":-0.10437221165545808,"17":-0.017408645035537452,"18":0.09526515985368593,"19":0.038864671507605794,"20":-0.12760831389458258,"21":0.12592535733415794,"22":-0.14493914388513104,"23":-0.049049807459610656,"24":-0.0571026462346195,"25":0.061590955772873414,"26":-0.0056388963749843595,"27":-0.07599517259694971,"28":-0.04365355349034538,"29":-0.07703011743468678,"30":0.0444508308444929,"31":0.06571229398788467,"32":-0.07836608766254857,"33":0.08125305746636495,"34":-0.18579486207999307,"35":0.052975668650555086,"36":0.04909417288108161,"37":0.10794205310245562,"38":-0.0969243180749084,"39":-0.14283189323399506,"40":0.00555920019415463,"41":-0.051712119088091806,"42":0.028475285327939845,"43":-0.007372615663118932,"44":-0.02189374823466476,"45":-0.04342954115905573,"46":0.018702900758487052,"47":-0.10711832734572108,"48":-0.06662491036242485,"49":0.08277951208690919,"50":-0.052896409775871754,"51":-0.11157957323355978,"52":0.1329119645226084,"53":-0.07043832344618216,"54":-0.05443718329572924,"55":-0.025945795082278875,"56":0.010249289083870346,"57":-0.04765508265382612,"58":-0.03660939404713215,"59":0.006407305556509587,"60":0.03491264725456591,"61":-0.028014684597533535,"62":0.03876201431486206,"63":-0.07529611868435838,"64":0.07058775905776395,"65":-0.00793597771095787,"66":-0.11844510323556158,"67":0.12028792093707133,"68":-0.039958735341200355,"69":0.018514328931625183,"70":-0.010656310516138051,"71":-0.04746602084663046,"72":-0.020780811865537995,"73":-0.06541992143378779,"74":0.047194734764688544,"75":-0.005793210502522874,"76":0.051426363484091825,"77":0.02905400051216046,"78":0.10230172751307888,"79":-0.01183174931528674,"80":-0.014664636546601589,"81":-0.011372848150165277,"82":0.06260756787254279,"83":-0.07562206337394513,"84":0.026073798642014322,"85":-0.09786718131766302,"86":-0.009333127595343839,"87":0.031189761342011287,"88":0.014619522294346285,"89":-0.09431015635845995,"90":-0.036497604309482574,"91":-0.022837966327059193,"92":0.10435479029133105,"93":0.09544578526693855,"94":0.05210911747869144,"95":-0.09577578842738732,"96":-0.01696791618120315,"97":-0.02994688748931425,"98":-0.03621513005651592,"99":-0.07197237489776143,"100":0.02033845160788402,"101":0.03639738480025482,"102":-0.06755625623802046,"103":-0.019087623851165605,"104":0.0876047326939932,"105":-0.0031748964461408217,"106":0.04893388214436778,"107":-0.12399854589233843,"108":0.10075935325641705,"109":-0.07356667718732986,"110":0.07337798950859506,"111":-0.00022671176809373807,"112":0.003966643457049617,"113":-0.12348274321438565,"114":-0.01968079417652718,"115":-0.10142088904621414,"116":0.1413568397222203,"117":0.09950222058004465,"118":-0.05545524169047394,"119":0.059223440014127916,"120":-0.035279274074387565,"121":0.02662033756918098,"122":-0.10435984553308443,"123":-0.007505887722359241,"124":0.08564334192121859,"125":0.07391029635715872,"126":0.01708109786090934,"127":-0.09184911074621444,"128":0.11906618550311988,"129":-0.0029703018251185593,"130":-0.06548126872204812,"131":0.030639673695185613,"132":0.04748724369629018,"133":0.000972097365385311,"134":-0.026243669876721568,"135":-0.23399639256206053,"136":-0.08878584752754257,"137":0.02046723778874897,"138":0.02894261462648719,"139":-0.010298776527566443,"140":0.022939749943265968,"141":-0.06866208880732855,"142":0.13467432676542365,"143":0.035469013503617225,"144":-0.026900176462317623,"145":-0.019825600991772847,"146":-0.04765219583855293,"147":0.036586838982843185,"148":0.06011894735168112,"149":0.13333225855603204,"150":0.16789739102612183,"151":0.030293985827887213,"152":-0.01102635992947357,"153":0.08836538178410193,"154":0.05396501586571266,"155":0.06801394171581542,"156":0.0009954384311587027,"157":0.09475266938471745,"158":0.03643579371835422,"159":-0.04096239787007851,"160":0.024639911234249516,"161":-0.08595561831041361,"162":-0.07994812735792795,"163":0.0069120540537503305,"164":-0.025880176945026038,"165":0.025975464621933782,"166":-0.06979071378914974,"167":-0.037092619756470616,"168":-0.05722698165300855,"169":-0.013019217959620064,"170":0.06611883167929469,"171":0.09567524675065166,"172":0.11276425745317603,"173":-0.11619252586632657,"174":-0.009278721646249493,"175":0.0443640980189078,"176":0.03916467215045293,"177":-0.026507921753285296,"178":-0.17570303718962635,"179":0.08008475875439586,"180":-0.0038107189185407923,"181":0.015225442594281317,"182":0.02377380975416173,"183":0.03252492959421219,"184":0.07187850736948195,"185":-0.0122588248536332,"186":-0.019516681719293365,"187":0.03428970084983309,"188":-0.07445059597631444,"189":0.02867369268581,"190":-0.07027241326953163,"191":-0.026866757362898612,"192":0.05070596957525276,"193":0.04115619779058935,"194":-0.034854521601093424,"195":-0.035717025487146004,"196":0.07956089911871754,"197":0.0011614738715003455,"198":-0.009434496319893527,"199":0.04147710564447876,"200":-0.003615248076842888,"201":0.016290469188532015,"202":-0.010420071544708588,"203":-0.000978318689871367,"204":-0.0825529498101822,"205":-0.10333711883010299,"206":0.027956687635909548,"207":0.16208568629590567,"208":-0.006779961301321886,"209":-0.08277189510846893,"210":0.08127904201342369,"211":-0.07849293600347329,"212":0.06423793833445013,"213":-0.01019168000621529,"214":0.0799902049709536,"215":-0.07008112200919217,"216":0.028817444517706486,"217":-0.011042302567434579,"218":-0.10396268628527415,"219":0.028721937543503114,"220":-0.09312775992355929,"221":0.03184796120165708,"222":-0.007570489614571939,"223":-0.06341119894633915,"224":0.07459718430269381}},{"sx":3,"sy":3,"depth":25,"w":{"0":0.09948040150266386,"1":0.020530253194105997,"2":-0.0880243313734087,"3":0.02487786028870436,"4":-0.03256221515453361,"5":0.07039501257003639,"6":-0.021537547784906998,"7":-0.014979852765219638,"8":0.045933257976186984,"9":0.004420325309195815,"10":-0.0498312312143092,"11":-0.03814929721579026,"12":0.04390454649571705,"13":-0.0136015984181915,"14":-0.10430449466033151,"15":-0.008031153569444411,"16":0.0601937289697776,"17":-0.005132363225020862,"18":-0.08697073690374181,"19":0.062180788546750215,"20":-0.011284687442791621,"21":0.09615307190814595,"22":0.08488079317984097,"23":0.008067832706920365,"24":0.11924890611722849,"25":-0.04171625621801642,"26":-0.031092229440592003,"27":-0.03461114803696887,"28":0.0007824040536143864,"29":0.08039039507278763,"30":0.02619509728034863,"31":0.02485028242182584,"32":-0.05034211088892206,"33":-0.06334936329216437,"34":-0.04968860866346369,"35":0.22668763930600927,"36":0.043490746045003,"37":0.05370532255559289,"38":0.016874881151707755,"39":0.059044774610723445,"40":-0.10253161701449832,"41":-0.002770244913983916,"42":-0.06147627859094102,"43":-0.057436020074123115,"44":0.06171372878980582,"45":0.062457002589660915,"46":-0.0636570013168028,"47":0.09952311611460235,"48":0.004069011497239396,"49":-0.046407212212010385,"50":-0.0007265083476218905,"51":-0.09487011972718905,"52":0.04133581124415599,"53":-0.1011749169068074,"54":-0.08186626997515023,"55":-0.04970881552777881,"56":-0.022479138083905358,"57":0.002245647129773826,"58":-0.08985607654879521,"59":0.09529797332856231,"60":0.04702045863506689,"61":0.06478457740597096,"62":-0.06935062883439834,"63":-0.0076805138454555015,"64":-0.09607848685121674,"65":0.10419501486255185,"66":-0.012563502144795052,"67":0.006431123020160987,"68":0.027510185905017533,"69":0.02694735582438364,"70":0.011836891403196432,"71":0.11494292548078475,"72":-0.021247640914870948,"73":0.08918523872482759,"74":0.014024814069907167,"75":0.07144266976237419,"76":0.08726849608282941,"77":0.17713305209669591,"78":0.03174931694243134,"79":-0.026378527339988394,"80":0.16709705108992276,"81":0.015229823341453097,"82":0.01935417422385938,"83":-0.0479766027663013,"84":-0.013274867221842093,"85":-0.1143818785225012,"86":-0.11301004526468492,"87":-0.06829793699161588,"88":0.045395486113443045,"89":0.1010683628265191,"90":0.061886622394975395,"91":0.048330903519049256,"92":0.00421346289778374,"93":0.044149933630015306,"94":-0.013469321525962754,"95":0.0413655727769894,"96":-0.06642270166027026,"97":-0.09805599508029482,"98":-0.005306876165399793,"99":0.011895666248803649,"100":0.0006719609716958199,"101":-0.01712069407172709,"102":-0.003807214613911376,"103":-0.07863597580932626,"104":-0.04504689941953358,"105":-0.0020495650150446267,"106":-0.04680292734175899,"107":-0.09655364767506394,"108":-0.07206616629565525,"109":-0.03710354716298891,"110":-0.032836132272502344,"111":0.03525490509910641,"112":-0.027310250329135994,"113":0.055114452246754916,"114":0.06446146422664034,"115":0.028708739749684804,"116":0.10477540660813091,"117":-0.02688820630444114,"118":0.05492733425802915,"119":-0.0509321490421553,"120":0.03187525088553233,"121":-0.10312695058994772,"122":0.012982984213364336,"123":-0.06918044294964995,"124":0.017481760926878934,"125":-0.029826129575604488,"126":-0.12660196147387875,"127":0.051002377659101684,"128":-0.02839668185105496,"129":0.02671285947641103,"130":0.014557199651597892,"131":-0.04854741471807452,"132":0.07092243612993829,"133":0.09053950487409292,"134":-0.024711132796345892,"135":-0.041227943614514546,"136":-0.1051000199780724,"137":-0.02753015110747452,"138":-0.06801526077614069,"139":-0.0984323310323456,"140":-0.07653318330774009,"141":0.017061433764657897,"142":0.02530313192886235,"143":0.0009513856093236405,"144":0.0800277211124521,"145":-0.018810969533527296,"146":0.06602733347802314,"147":-0.06818271526160438,"148":0.00026661859818217235,"149":-0.1133582622532455,"150":-0.038956342730681146,"151":-0.1074522633678267,"152":-0.04368957722554857,"153":-0.05807437402132123,"154":-0.016756767002833607,"155":-0.07384851851544409,"156":-0.09467683190560255,"157":0.05567876773835166,"158":-0.005214947727384608,"159":-0.08504094086139705,"160":-0.12025953193271059,"161":-0.01904869825639111,"162":-0.07246071490713041,"163":-0.026653279061949125,"164":-0.03298206606397698,"165":0.07319854176561202,"166":-0.008185504461195864,"167":0.11747393117533522,"168":-0.0044226951055892656,"169":0.061165033326155256,"170":-0.0030614741281320664,"171":-0.004564376682991578,"172":-0.051778379845129736,"173":-0.009121692192163742,"174":-0.011968943146397657,"175":-0.0041779339266335815,"176":0.11705209105308398,"177":0.02563725694492857,"178":0.020630795376788788,"179":0.0417284142348339,"180":-0.06315608155597724,"181":0.038751036092786295,"182":0.029803530947491705,"183":-0.027398900252540895,"184":-0.05345721884173939,"185":-0.06438637484387622,"186":-0.07740214205432323,"187":0.06400156953120986,"188":-0.008981102454242721,"189":0.002504249671943641,"190":-0.011103007406978466,"191":-0.10404050699515441,"192":0.011574327453492317,"193":0.09205884060354141,"194":-0.07315548915645921,"195":-0.06153994084432122,"196":-0.09393366516891877,"197":0.021977662181725467,"198":0.028007026750785372,"199":0.07539424732730413,"200":0.15759243777720014,"201":-0.06619949629682323,"202":-0.02234153262678391,"203":0.005253748244717379,"204":-0.07463705750679858,"205":0.11313233490400094,"206":0.02921691679635087,"207":0.1313662620310058,"208":-0.03525874027506282,"209":0.07532546251955058,"210":-0.01877674097787285,"211":0.07159665035021845,"212":-0.0644642251586018,"213":0.0672568855275631,"214":-0.022293236063755717,"215":0.02835142277015724,"216":0.0774182498663112,"217":-0.10699230574267646,"218":0.04800295441069434,"219":-0.0023104939655840275,"220":-0.000469628433675501,"221":0.07500318867209138,"222":-0.12186107917219156,"223":-0.06921892365634738,"224":0.07805581210515433}},{"sx":3,"sy":3,"depth":25,"w":{"0":0.033346136161091576,"1":0.027139244270324697,"2":0.12502769165527758,"3":-0.06362608616613352,"4":0.1269779652873119,"5":-0.030448135170076572,"6":0.10935860633539883,"7":0.047803301966491366,"8":-0.04322627239111447,"9":-0.05980419351381117,"10":-0.17372523145287047,"11":0.14814848930571226,"12":0.07672500821406918,"13":-0.09441685715569266,"14":-0.03139883058548339,"15":-0.11268633822788043,"16":0.09626553438798613,"17":-0.06957096607814568,"18":-0.0184903264165377,"19":0.08413764641887192,"20":-0.006589371933809667,"21":0.04823178891391398,"22":-0.0725414137787816,"23":-0.04087340242402254,"24":-0.03890898543371045,"25":0.038545413552721834,"26":0.07143947712998658,"27":0.07772044834081687,"28":0.09268527993891414,"29":-0.03799200269459167,"30":-0.06900428457118145,"31":0.022235329202316176,"32":-0.11629879378404591,"33":0.09636963281119118,"34":-0.038705427165644846,"35":-0.005440514739696749,"36":-0.10152288708008785,"37":0.06710603120941452,"38":0.004445970557572206,"39":-0.05976299460070664,"40":-0.03312539691431206,"41":0.03625245943231198,"42":-0.007513093137866173,"43":-0.05370299333067774,"44":0.09465216876092124,"45":0.033946481291549,"46":0.15604315965717674,"47":0.032822360304407314,"48":0.019215770656124637,"49":0.0909742532295151,"50":-0.025285039779208717,"51":0.01910241117229307,"52":0.0044625240276420924,"53":0.014881204863022739,"54":-0.0021284737966708006,"55":0.11458184786311951,"56":-0.04975976705438501,"57":-0.0327636370744068,"58":-0.09672529760234357,"59":-0.01623891264776623,"60":-0.008136811580334071,"61":0.12890378734105135,"62":-0.09455390395449365,"63":0.016095157886812466,"64":0.11867835773068121,"65":0.04437687799086422,"66":-0.11526630334603828,"67":-0.1178494605198585,"68":-0.020821869118687053,"69":-0.0424511987315786,"70":-0.015562406421998957,"71":-0.009665130798935587,"72":-0.04948460585849007,"73":-0.06817188067631375,"74":0.11246148591197257,"75":-0.010289511248265012,"76":0.00962602726891244,"77":-0.0457213102870291,"78":-0.060108548310477315,"79":-0.007885470379479294,"80":-0.004072075543166769,"81":0.09195153034144778,"82":0.012790856666524377,"83":-0.038325343703800044,"84":0.004823518646392504,"85":-0.10060820785453964,"86":0.11927344820190974,"87":0.014134246340728412,"88":-0.020062324684931368,"89":0.09008245837001233,"90":0.012434952064035146,"91":-0.11390824500922601,"92":-0.10166065254855934,"93":-0.036452858650348426,"94":0.028866262907996546,"95":0.062220435872112206,"96":0.06902030276643742,"97":0.04898847509202789,"98":-0.04646672106473801,"99":-0.020108088281862613,"100":-0.09667830135385655,"101":-0.023567406165861032,"102":-0.08881335934320209,"103":0.1880878655273103,"104":-0.0009481010073821804,"105":0.07968881172647412,"106":-0.02169973484197667,"107":-0.00024922486736524423,"108":-0.0011925487390740815,"109":-0.048504492654615074,"110":0.07133965428576097,"111":-0.008136938259533839,"112":-0.007252529333139305,"113":0.03228837675650705,"114":-0.10538623214626705,"115":0.041931803734124334,"116":-0.035245997561610405,"117":-0.02807250754192254,"118":0.09079815133266182,"119":0.0906609268216245,"120":0.06020044544868399,"121":0.0032627592635545775,"122":-0.05322735030180562,"123":-0.0657123035873625,"124":-0.008380817683569434,"125":0.060929863096553016,"126":0.13592990388194442,"127":-0.02139293080882336,"128":0.02561328823864855,"129":0.00616961925992596,"130":-0.03866740963408375,"131":-0.11318822005422728,"132":0.06838678770070437,"133":-0.03460132039051803,"134":-0.04149775453839677,"135":0.12197854805035303,"136":0.04136984876219017,"137":0.012101424543065538,"138":0.009145009931275584,"139":0.017156843194898293,"140":0.010776973022785883,"141":0.06939093090610166,"142":0.08653534728907379,"143":-0.07647907349228955,"144":-0.06689154349955567,"145":-0.011713650608508026,"146":0.08334522594084302,"147":-0.051777019202579565,"148":-0.05488576202735632,"149":-0.004853863075958271,"150":-0.054321550965962834,"151":-0.06917295821265855,"152":0.03288675830439898,"153":0.017908133373163465,"154":0.01740039870204348,"155":0.016081660736586047,"156":-0.03107306167416198,"157":-0.007125129200291525,"158":0.031571908011276885,"159":0.024560104971957947,"160":0.04047283379514367,"161":-0.0919351667695085,"162":0.00135000180283685,"163":-0.05261017871943656,"164":0.07210592188545621,"165":-0.02796224642083952,"166":0.07813034566246065,"167":0.03110941839470367,"168":-0.06846597187749837,"169":0.0217221018516638,"170":0.0245533220219072,"171":0.02665742541552886,"172":0.09056115481949359,"173":0.012102738611483258,"174":-0.03664621722376548,"175":0.035409607344419,"176":-0.05002642172899794,"177":-0.07461592098477395,"178":-0.10740019241058617,"179":0.045488804191817195,"180":0.0379912778412183,"181":-0.056833903079476,"182":0.029573342105915654,"183":-0.10693144700076436,"184":0.0824993867348848,"185":0.040611031250805105,"186":0.043315548912705185,"187":0.0027517233909487007,"188":-0.01515664962775686,"189":0.15013106867570442,"190":0.042332649157289716,"191":-0.041008324587357724,"192":0.17974339432865916,"193":0.01406069414485245,"194":0.12329556037956385,"195":0.0951303475587496,"196":-0.038245365757862686,"197":-0.0011762262958794753,"198":-0.13565832975984046,"199":0.051107793915909284,"200":0.09967749705923996,"201":-0.008864905661925522,"202":0.08141789364629184,"203":-0.07288413024110577,"204":-0.10816613717582768,"205":-0.016665238203772262,"206":0.09386079564490203,"207":0.06531206444855793,"208":0.004076890076260552,"209":0.07885250101738023,"210":-0.16683395176665783,"211":0.030355793019408137,"212":0.13176190438193963,"213":-0.1434180723096341,"214":-0.09646123164574738,"215":0.0022309299379436793,"216":-0.04672130259482485,"217":-0.13516209966503442,"218":0.07266760626369878,"219":0.03462323741818522,"220":-0.006344572457630013,"221":0.12291157064119146,"222":0.0644277668460332,"223":0.019516386538227334,"224":0.03041437957323632}},{"sx":3,"sy":3,"depth":25,"w":{"0":0.07436560496439786,"1":0.05552959322149767,"2":0.0014987800450511168,"3":0.08504168189268853,"4":-0.07406745906489387,"5":0.014128714733760503,"6":0.047758906199753544,"7":0.04593062846948147,"8":0.01972254439698674,"9":0.07148003139648074,"10":-0.03555042395588294,"11":-0.13044472237338353,"12":-0.09791080559469424,"13":0.10245947201044871,"14":0.0676756068468652,"15":0.027017706579472108,"16":0.017923912376644986,"17":0.07842520354271384,"18":0.10614579463507828,"19":-0.08761447603062926,"20":0.02530877745347139,"21":-0.014228269041052191,"22":0.06643422746900216,"23":-0.025575769860237813,"24":0.028643651029686214,"25":0.07178063993037596,"26":0.013801373809706056,"27":0.03463708981569638,"28":0.01767950064942481,"29":-0.040188459252650716,"30":-0.11185721131547552,"31":-0.024461338343714906,"32":0.09909495528449648,"33":0.05605725724305783,"34":0.029046417999039818,"35":0.021610309258542834,"36":-0.009841605153702243,"37":0.04649557091839095,"38":-0.07802517716303174,"39":0.030597161931794646,"40":0.03449469339986216,"41":0.012511241136177255,"42":0.029263763271660234,"43":-0.07219709566816317,"44":0.0049883807454389325,"45":-0.0814183287566444,"46":-0.15192451386389297,"47":0.07058923498718186,"48":-0.06760141130357816,"49":0.0958086142243205,"50":0.061546092369235486,"51":0.016818566782155257,"52":-0.02049285448158661,"53":0.002231636677169608,"54":0.05746594766647254,"55":-0.061092591745524845,"56":-0.13875300094518195,"57":0.05084018044719677,"58":-0.010954902847799009,"59":0.020963129137514323,"60":-0.025585575771218106,"61":0.01816096769570474,"62":0.040768840809219935,"63":0.047028139402087214,"64":0.12320662893107384,"65":-0.011233541281952085,"66":-0.06187153493149081,"67":0.006039663958574604,"68":0.004079275377160044,"69":0.01964408280618857,"70":0.007321453664680185,"71":0.1378868926054118,"72":-0.0660258920325593,"73":0.0843650634685451,"74":0.028611733251559787,"75":-0.05464406813555116,"76":-0.05157785020696946,"77":0.06705101269360399,"78":-0.11899170880737243,"79":-0.16309292717536863,"80":-0.0026399513356119677,"81":-0.039281459603559006,"82":-0.05855002546366562,"83":-0.06405665181982992,"84":0.019520923883581766,"85":0.06315787070908371,"86":-0.003291106494098202,"87":0.035251704339928545,"88":0.10707055978841515,"89":-0.02067456161343304,"90":0.012832237132547124,"91":0.14751915781426642,"92":-0.05054404824818936,"93":-0.046727951101237425,"94":0.027331756169759712,"95":-0.029689249147161294,"96":-0.03519071999333177,"97":-0.040588613706625185,"98":-0.062494939721994755,"99":0.026559143674962475,"100":-0.060999377724416576,"101":0.10316249640414939,"102":-0.06542470292551492,"103":-0.022731336322115405,"104":0.02731308021801508,"105":-0.0332425760336909,"106":-0.019426040999257405,"107":0.09881281556252569,"108":0.04509636892241155,"109":-0.05456868143356041,"110":0.07258327665941759,"111":0.007141396537049543,"112":-0.01761457256873525,"113":0.11523509350555684,"114":-0.08018179622412888,"115":0.0009857187706540733,"116":-0.03049085890267912,"117":-0.014122093800227437,"118":-0.070556765963982,"119":0.12422795293151305,"120":0.008666864587679386,"121":0.06258690504936204,"122":0.07617777897820731,"123":0.09556868043601972,"124":0.02285850144112025,"125":0.007917455869503934,"126":-0.02103197829977165,"127":-0.018601455565532693,"128":-0.1464686097767692,"129":0.10097437044422206,"130":0.15236972422572245,"131":0.05551034730945831,"132":0.045269739762717476,"133":-0.00604714245126522,"134":0.012362079358959856,"135":0.057608113137515696,"136":0.014316411113812629,"137":-0.014547093701319121,"138":-0.057129154374479664,"139":-0.1530504494244766,"140":0.09602467624428482,"141":0.021201914839310772,"142":-0.09245449158364916,"143":0.0018625963475711507,"144":0.0033613119215752663,"145":0.027145528998321886,"146":0.0559187333139713,"147":-0.12148209576828245,"148":0.003937533855268459,"149":0.06999434436056302,"150":0.0674595952336701,"151":-0.016122024289213242,"152":0.03113636528924204,"153":0.13205353873578674,"154":0.11568365645697244,"155":-0.12873463890617892,"156":0.032589250576470545,"157":0.07741662746034467,"158":0.041098598729229795,"159":-0.0028643541423137983,"160":-0.0005775414945004881,"161":-0.07379962284476715,"162":-0.04956280697641419,"163":0.00019653334129475522,"164":-0.0564704992423343,"165":0.016833787615794123,"166":-0.013749480696227627,"167":0.06659773141613311,"168":0.08088781722381828,"169":-0.04841263423455558,"170":0.004757408944192597,"171":-0.04245284621750612,"172":-0.031091553570029504,"173":0.008079526153486045,"174":-0.06104014198191043,"175":0.07506831304659643,"176":-0.07902488612150692,"177":0.04518191338588339,"178":-0.10714653592371019,"179":0.07622548878230234,"180":-0.053869291946262894,"181":-0.05919625720271208,"182":-0.16906857581799886,"183":0.037777840728059044,"184":-0.08188608523271101,"185":0.05708348503125273,"186":-0.06655120417035265,"187":-0.06004374793773862,"188":0.02920880853923694,"189":-0.05150286798957821,"190":0.023369936043470763,"191":0.018732359752249187,"192":0.0146546827781726,"193":0.01795902458376717,"194":-0.20388441585572759,"195":-0.03366193566429467,"196":0.029661593097419253,"197":0.004799822808132752,"198":-0.03391214263866543,"199":0.04312998886480151,"200":0.04677092961921818,"201":0.0559980958530332,"202":0.014229727903539557,"203":-0.043085633040613386,"204":0.0023925640007208303,"205":-0.05251451790471811,"206":0.07690321725429532,"207":0.017683791756479602,"208":-0.10476402742168414,"209":-0.11065986581712407,"210":-0.11522397210355709,"211":0.086706476618555,"212":0.06202783679531821,"213":0.06695308615307859,"214":-0.061975693571383335,"215":0.0759174966267369,"216":0.0026104241216504025,"217":-0.16316217532630073,"218":-0.13591174448869275,"219":-0.05638220781617906,"220":-0.06486517943429256,"221":0.05615328844371461,"222":0.059110758264840524,"223":0.032923092674647755,"224":0.04966530638600408}},{"sx":3,"sy":3,"depth":25,"w":{"0":0.0473215285606195,"1":-0.015136442169998968,"2":-0.049929345149143003,"3":0.02624192111595211,"4":0.10875308863838716,"5":-0.02234750025501807,"6":-0.05073718344970148,"7":0.05348519121112694,"8":0.057579457350719176,"9":0.05303430093543133,"10":0.0627675331768485,"11":0.052089825453848146,"12":0.014546088414153313,"13":0.08023375819059372,"14":0.03983844367833361,"15":0.10426052641531254,"16":-0.07932735972641607,"17":-0.001772467650987811,"18":0.001974225680951582,"19":-0.02088832915829772,"20":-0.10348503084764264,"21":-0.07365473679378673,"22":0.005324841984556808,"23":-0.06725931487058487,"24":-0.037800753287923344,"25":0.09057739267419745,"26":0.024177989721761658,"27":-0.06834178072043709,"28":0.030336859190584625,"29":0.012506245461515051,"30":0.05332141165713151,"31":0.012740605354918227,"32":-0.03126185890200691,"33":-0.03378776735524163,"34":-0.02087040310767417,"35":-0.009983311098889402,"36":-0.11143679159151564,"37":-0.034737690288513395,"38":0.17728729582314093,"39":0.02946917689130311,"40":-0.10984759501833218,"41":0.06896687288507282,"42":0.0049566451890952,"43":-0.05374619341005872,"44":0.0024527217661158454,"45":-0.07369837662577255,"46":-0.01459886528970799,"47":0.03572167597280996,"48":0.09343329462441473,"49":-0.056878703231213225,"50":-0.05900741661739208,"51":0.03504817192186056,"52":0.052454650032493645,"53":-0.0037988074969928106,"54":-0.005728776722277009,"55":0.11231508546198676,"56":0.028136940181419975,"57":0.08662221929258888,"58":-0.2130188073941287,"59":-0.01834894735416143,"60":-0.0880910704168285,"61":-0.0811561893132154,"62":0.011294923521218084,"63":0.06174125548483916,"64":0.041706793173810416,"65":0.0851751792364092,"66":-0.01100941568161948,"67":0.08256880781945665,"68":0.03976998045102004,"69":-0.06500862372629715,"70":0.035666211629530986,"71":0.14574541042962041,"72":-0.08185274562071367,"73":-0.01721706344466819,"74":-0.021546981736246626,"75":0.012820400556349209,"76":-0.09478013793410836,"77":0.013856803629083448,"78":0.04371649839337918,"79":0.02595038616357237,"80":0.014184584130975968,"81":-0.01242045572160724,"82":0.021953906252150518,"83":-0.012740963897236217,"84":0.0740234175620944,"85":-0.10471019823529398,"86":-0.09094450879870815,"87":-0.006376122231601542,"88":0.04230718670420696,"89":-0.015692141540422398,"90":0.07048838122884861,"91":-0.016656962865747034,"92":-0.10265016447469874,"93":0.048582487735129076,"94":0.06435696145918299,"95":-0.03536914905007349,"96":0.01448419700788634,"97":0.05217940577218147,"98":-0.07353177020741485,"99":-0.07744950293081523,"100":-0.07977823112260944,"101":-0.023681403605107332,"102":-0.036367597519748045,"103":0.0038074676232030423,"104":-0.008388695122262955,"105":0.08989769804282757,"106":-0.0031328997733730177,"107":-0.010290866798566802,"108":0.025741402100822233,"109":0.08911326139963383,"110":-0.06927166549010565,"111":0.0171055985721484,"112":-0.030787587470915256,"113":0.03984808709754299,"114":-0.04903052160266263,"115":-0.042265479587723274,"116":0.045484495988165986,"117":-0.03405042662248292,"118":-0.09408619744822808,"119":-0.02679394681613146,"120":0.030810378613762943,"121":-0.017505860683723215,"122":-0.11656761004664956,"123":0.07907426428677322,"124":0.10781064988268405,"125":-0.020890386476463636,"126":0.09602025287394417,"127":-0.07105154691496329,"128":-0.06389402866935769,"129":-0.03995085242349612,"130":0.063513187886323,"131":0.13139118555235305,"132":0.06942271601437498,"133":-0.047605986695210975,"134":0.004201769211452216,"135":-0.045791368750510965,"136":-0.10165850101135915,"137":-0.0777048131429793,"138":0.03135460808040836,"139":0.005792620194235639,"140":-0.1254721767813618,"141":-0.03558978794783618,"142":-0.09531542571599354,"143":-0.051373919735947945,"144":0.030188950760847336,"145":-0.05740872358997777,"146":-0.053681048645829656,"147":-0.05776239903105139,"148":0.044941815188253485,"149":0.11008895179221288,"150":0.0451411400144238,"151":-0.00030276827661993955,"152":-0.029249154905026453,"153":0.05579516857296584,"154":0.052082453688090086,"155":0.0077424417344962825,"156":0.033264703048719174,"157":-0.11993065437659356,"158":0.06366998005635113,"159":-0.019312095672939747,"160":-0.05946322423157117,"161":-0.06688065375447884,"162":0.04224609833516074,"163":0.039279362824617095,"164":0.018265929456069734,"165":-0.0066278974327609215,"166":0.13636248259990547,"167":-0.012415902696081256,"168":0.04520500176182983,"169":0.039297924698430256,"170":-0.13354589508193246,"171":-0.027758816954689895,"172":0.1180505284348229,"173":-0.03501226766720736,"174":-0.03052280448416339,"175":-0.00662898034166833,"176":-0.005964413441127684,"177":-0.030504376424581394,"178":-0.05355051473036477,"179":0.005489562498620491,"180":0.09935136198972849,"181":-0.024654255163453456,"182":0.13080534607040523,"183":-0.06101718948468581,"184":-0.030723449321350866,"185":0.12439918048507279,"186":0.09266510605004694,"187":-0.0795263697187668,"188":-0.007588295277780199,"189":0.01292021678666136,"190":0.012166847405592082,"191":-0.019938254154411406,"192":-0.007689990057870864,"193":-0.14543078724176528,"194":-0.062443996630505025,"195":0.0110506289716089,"196":-0.037894073540231485,"197":0.10451816009201077,"198":-0.10315230211607346,"199":-0.009089369204862842,"200":0.017355911702284933,"201":0.014092041142032613,"202":0.07297630523043434,"203":-0.024486436311940588,"204":0.07522689604039048,"205":-0.023608904661420595,"206":0.11015326497475524,"207":0.024925733780857672,"208":-0.006086579308329304,"209":-0.1346511232106438,"210":-0.0655160991675242,"211":0.04953931154834209,"212":0.11525844651017406,"213":-0.06798459234303379,"214":-0.09950431459189962,"215":-0.03032534420528832,"216":-0.07374269741803025,"217":-0.030484893124829396,"218":0.051834193624844635,"219":-0.023516336112261595,"220":-0.07928539441661568,"221":-0.014437206378757958,"222":-0.03166277971761828,"223":0.030837083829432777,"224":0.11835031495173762}},{"sx":3,"sy":3,"depth":25,"w":{"0":0.018333441930996237,"1":0.0019519646266004634,"2":-0.005033452623969607,"3":0.1235736650824892,"4":-0.06939326600735535,"5":-0.04551854733878926,"6":-0.1086652324316066,"7":-0.08743495816447557,"8":0.06737746807917719,"9":0.02368397636725555,"10":-0.04509670960153654,"11":0.014600851266850859,"12":0.007251596729826475,"13":-0.12312933827151562,"14":-0.007547208419950794,"15":-0.10044388230162721,"16":0.07779647586255266,"17":-0.01801266940251938,"18":0.009414177541602654,"19":0.09071459795513832,"20":-0.05163619016740652,"21":-0.08983247605609267,"22":-0.0803651385794432,"23":-0.06053187093512338,"24":0.04365198433806684,"25":-0.023872350551952144,"26":0.04618206993662048,"27":-0.009896565848900717,"28":0.06478105817589168,"29":0.01554322998476471,"30":0.07542035882032068,"31":-0.025124145417357795,"32":-0.006711243527893719,"33":0.007250639440727423,"34":0.04169339037682408,"35":-0.05824280755647351,"36":0.008678769848047777,"37":-0.08742168472273174,"38":-0.031249501727205285,"39":0.06003298940462806,"40":0.07825938393682186,"41":0.01980130989695709,"42":0.024154306217612897,"43":0.015586443575352828,"44":0.04745951160600401,"45":-0.0027639985106997335,"46":0.11212113006929836,"47":0.09460103255742776,"48":0.05027991211760253,"49":0.1202750678342703,"50":0.17272280566469517,"51":0.0038553373487731596,"52":0.015601176770154004,"53":-0.0714295243668908,"54":-0.0915752078492937,"55":0.06598428071685931,"56":0.06526195028725894,"57":-0.04390975668700322,"58":0.06399870076207269,"59":-0.03641991090324918,"60":-0.1531237450434964,"61":0.07784866692871592,"62":-0.013985109732134474,"63":-0.005600416810105903,"64":-0.09550084680429795,"65":0.07790871031791778,"66":0.10378954316185789,"67":0.06173157801069502,"68":-0.04380597076794936,"69":0.03442850882903968,"70":-0.04893140344526868,"71":-0.043677755459146116,"72":0.003552270492158188,"73":-0.004288080425751102,"74":0.1018894570540387,"75":0.0003595149002527473,"76":0.013514216290635586,"77":-0.01543291245425144,"78":0.009350809088055533,"79":0.08794949346021425,"80":-0.10556479163400662,"81":-0.14876652646053232,"82":0.060735347669984,"83":0.02937143617431891,"84":-0.05280636048755646,"85":0.019845981804064935,"86":0.1504193577361855,"87":0.06879343910729711,"88":0.002077815576331215,"89":0.009763773319940498,"90":-0.03942860929541375,"91":0.09159552736845554,"92":0.0529205061655716,"93":-0.021635005643807676,"94":0.024700029773697146,"95":-0.08123525856553962,"96":-0.06788307242343533,"97":0.05305994658032586,"98":0.04706041564864503,"99":0.0888716018270903,"100":0.020666960342307816,"101":-0.04092086184390056,"102":-0.09592712112040996,"103":-0.007344512056174499,"104":-0.07950610691400611,"105":-0.01921817900447774,"106":-0.01681544572085422,"107":0.12305668509626856,"108":0.09843154558548323,"109":-0.011662109442735083,"110":0.02457096672728446,"111":0.01041817666075631,"112":0.044887845341617716,"113":0.0021541967654932544,"114":-0.03315745953537829,"115":0.03991258449716589,"116":0.03275999447407273,"117":-0.08015250729894172,"118":-0.19325483934195417,"119":-0.08901809862468421,"120":-0.04007518915277558,"121":-0.08824359519506648,"122":0.005349932769772226,"123":-0.05679462103621759,"124":-0.028644341186935096,"125":0.05070534111425444,"126":0.03942642327950895,"127":-0.010317646027425022,"128":-0.004757388623122239,"129":0.08787655923558509,"130":0.025412085947509218,"131":0.05067399707794237,"132":0.03353622109912311,"133":0.00955694333967683,"134":-0.06381411636998112,"135":-0.10249461592178453,"136":-0.062237100301575164,"137":-0.1026295060673417,"138":-0.015259822571319581,"139":0.04845099493135491,"140":0.03894840319860628,"141":-0.046397549413258146,"142":-0.07374246941433737,"143":0.026470495830610546,"144":-0.04317080087711204,"145":-0.10334904525688182,"146":-0.13569489947744096,"147":-0.049629114650846476,"148":0.02469857751501986,"149":-0.0058595011853927095,"150":-0.05468529906999876,"151":0.06795323734136742,"152":0.04410953538285244,"153":0.04703518978056255,"154":0.10244129944969392,"155":-0.11949333252418765,"156":-0.018097505197792754,"157":0.040785752369901423,"158":0.01873938769387278,"159":0.028425195064218103,"160":-0.00675464077755851,"161":0.04324113530855446,"162":-0.05538334932661112,"163":-0.04028328857487331,"164":0.13275976450589208,"165":0.0051569686803493685,"166":-0.06607289859871916,"167":0.028533437032006375,"168":0.054090820871809525,"169":0.11047434027739601,"170":0.12331890893279371,"171":-0.039740445726684205,"172":-0.2196375980993052,"173":0.11030453184157929,"174":-0.08971033707919243,"175":-0.031049631268348987,"176":0.044916153641474145,"177":0.017041982697496783,"178":0.14959041718333763,"179":-0.02669418657353708,"180":-0.07282080130175773,"181":-0.01642191943275839,"182":-0.02197643330809663,"183":0.1117112900803327,"184":-0.07572702298823611,"185":-0.08833874632588869,"186":-0.04962957075260316,"187":-0.008976233275866467,"188":-0.050891913938621455,"189":0.07059108826945781,"190":-0.05819902336117972,"191":0.011831992882612167,"192":0.03020019647088909,"193":0.047871858440477366,"194":-0.06155257918470357,"195":-0.044655260055202,"196":0.024105434293465747,"197":0.05436563880979114,"198":0.007510937984778571,"199":-0.056139522511134826,"200":0.02520742922199612,"201":-0.12439615146155501,"202":0.03252115301345504,"203":0.0031307234925662866,"204":0.0061349367504274985,"205":0.12895137369113982,"206":0.03747287525628872,"207":0.10926313247812423,"208":-0.03602747651757341,"209":-0.1040049340780395,"210":0.013360312953457463,"211":0.028884828652973343,"212":0.04945761726389945,"213":-0.046630341438122884,"214":-0.050213213114649206,"215":0.01118094869631522,"216":-0.030840196357907548,"217":0.02333267055223925,"218":-0.09751626207952678,"219":-0.04810281661403096,"220":-0.02072646784631509,"221":-0.0940792433097618,"222":-0.0031642669485077253,"223":-0.1127543977706,"224":0.10858804161903006}},{"sx":3,"sy":3,"depth":25,"w":{"0":0.04977487916616785,"1":0.1190960650750394,"2":-0.08131328473578611,"3":-0.020204990691452582,"4":0.014497420025998764,"5":0.02498768728457897,"6":0.06242343139409651,"7":-0.05062020931664014,"8":-0.033904704779277275,"9":0.016211725273192368,"10":-0.060577452763382965,"11":0.012377391120563052,"12":0.03627989801796535,"13":-0.0738033438039363,"14":-0.06740548264617628,"15":-0.04175070972063404,"16":0.03362517658701917,"17":-0.011213562726107585,"18":-0.07731931238100097,"19":-0.03715858408022733,"20":0.015914953854448185,"21":0.0048351873729213755,"22":0.026280034633564268,"23":-0.05726413204575983,"24":-0.04330189890140536,"25":-0.03444005518970166,"26":0.01643457703456539,"27":0.044186443099710676,"28":-0.039518500668165965,"29":-0.051031176827615536,"30":-0.04660193983288932,"31":-0.04009142589471338,"32":-0.014650341758920089,"33":0.029305114383723296,"34":0.05120316506508668,"35":0.03503886801143661,"36":0.007365649800720393,"37":0.003487828109899515,"38":-0.080442563668004,"39":0.03239022988988194,"40":-0.06831528780590822,"41":0.0182489481626092,"42":0.00006698011188649664,"43":0.11498056693523835,"44":-0.008056982209638896,"45":0.03434478799745688,"46":-0.056850543386970744,"47":0.003990765233019803,"48":0.0336307491869607,"49":0.029894588222417834,"50":-0.047975082151934446,"51":0.047776717227136924,"52":-0.10207803702373994,"53":0.030519287382600395,"54":-0.03843973597887201,"55":0.11364849272691761,"56":-0.10975843322474078,"57":0.007593931858531374,"58":-0.0015307852740613541,"59":0.03558549666083256,"60":-0.06583641660912104,"61":0.054581227148452975,"62":0.12470317754669932,"63":-0.011690164182833938,"64":-0.020453048252952414,"65":0.11115891455265135,"66":-0.006150766643817313,"67":-0.02477798795499127,"68":-0.003316301461039872,"69":-0.035299704094756745,"70":-0.07116912168433387,"71":-0.038008878010741,"72":0.021232989956639303,"73":0.07452827180923399,"74":-0.03974221531060708,"75":-0.02074368565409803,"76":0.1323777237086944,"77":0.1620381588190966,"78":0.014235300267531172,"79":-0.08510458265652221,"80":0.005397057908747205,"81":0.05351788938720472,"82":-0.02257697201567033,"83":-0.0952072437549608,"84":0.041385210559384836,"85":-0.09518110355329037,"86":-0.006620977891719243,"87":-0.03249114809823802,"88":-0.012389676787379886,"89":0.041959631473907036,"90":0.14977597339167745,"91":-0.006537809771108271,"92":0.005204981547345237,"93":0.02690457913977528,"94":-0.021838494704617874,"95":0.01882269190124147,"96":0.09452596830131993,"97":-0.03766068936591121,"98":0.0007999084356773949,"99":0.08921165852226741,"100":0.09344049554911751,"101":-0.08984293477487726,"102":0.03536001153850455,"103":-0.08669538912582973,"104":-0.03230134146991134,"105":-0.11474013351253076,"106":-0.00836667817744769,"107":0.11499072793525027,"108":-0.0771984461562195,"109":-0.08877656887817967,"110":-0.09558113010841836,"111":0.09284097749662194,"112":0.0032990466979562136,"113":-0.08195184341338564,"114":0.034741417464682275,"115":-0.08653116283048803,"116":0.051160870991702856,"117":-0.11339143527442348,"118":0.11060453073154751,"119":0.060356158159464185,"120":0.06741991514008305,"121":0.09292976894998756,"122":-0.005175564320891078,"123":-0.049672696777257136,"124":0.0161179312101257,"125":0.05521687467248918,"126":0.08372107668497117,"127":-0.027639596193654317,"128":-0.018167537092860394,"129":0.020230283417005834,"130":0.04206100516092505,"131":-0.11088026203611175,"132":-0.059822978171000324,"133":-0.024825953887550968,"134":-0.00916404899335058,"135":-0.0009251615734511861,"136":-0.1203958167838729,"137":-0.062190558782159164,"138":-0.050830641170340016,"139":-0.06036858802447064,"140":0.053511207428656865,"141":0.02024648312024621,"142":0.06522260122523192,"143":-0.043659252056114393,"144":0.04235814327168493,"145":0.031613072418646186,"146":0.05966691057319501,"147":0.029390393801531137,"148":0.019927339054581036,"149":0.01972066367128629,"150":0.0625148960141477,"151":0.01710294978163396,"152":-0.14957699138679328,"153":-0.06637381499901956,"154":0.020924362244250084,"155":-0.10312465287455665,"156":0.09100984598334672,"157":-0.08936929421513658,"158":0.0445037334887367,"159":0.03981908320704662,"160":0.05933079669878681,"161":-0.017464226163788732,"162":0.0007770066891621325,"163":0.12945110326012096,"164":0.009075803203618537,"165":-0.005743954748010317,"166":-0.14363106974861167,"167":0.043069644034777275,"168":-0.07185135378280455,"169":0.10481821770218223,"170":-0.014373411210367257,"171":0.05376029583849314,"172":0.09122938594037397,"173":0.012669170722796127,"174":0.13394670396990996,"175":-0.06596396876155702,"176":-0.0018957728875708833,"177":-0.10345292745437631,"178":-0.0415886807745628,"179":0.0216686099595189,"180":0.10098918283530667,"181":-0.002804519430369452,"182":0.058955222898588545,"183":-0.009134681036784671,"184":-0.04131029478449179,"185":0.006498119891734101,"186":-0.05311692830301517,"187":-0.007884398543747402,"188":0.0019220097573703471,"189":0.07851073202286199,"190":-0.008445374071316403,"191":-0.05792713564726299,"192":-0.05524203637917132,"193":0.000872610660431862,"194":0.03884965371045505,"195":-0.10241734416406258,"196":0.02191712373809938,"197":0.12058560147927899,"198":0.009347443332187974,"199":-0.03761870520673594,"200":-0.024647094733785836,"201":0.09827725537691795,"202":-0.03719619165654632,"203":-0.019948205041641034,"204":0.07523779931084393,"205":-0.03265311161466707,"206":0.0795499797400103,"207":0.004261909148819204,"208":0.020122264451567028,"209":0.04156911468906578,"210":-0.030841467163025486,"211":0.04068464873259079,"212":0.01152816323945671,"213":0.05989532503595157,"214":0.08981290287990948,"215":-0.04376854282824601,"216":0.011236157636921021,"217":-0.07885023231860677,"218":-0.02965475997230804,"219":0.08917776893194533,"220":-0.0941265804456169,"221":0.03444798131234674,"222":-0.0601014119960159,"223":-0.00007799498753995359,"224":0.08878301357154075}},{"sx":3,"sy":3,"depth":25,"w":{"0":-0.026262290366195106,"1":-0.07184537560242474,"2":0.06315918976947074,"3":0.08433997627459174,"4":-0.02386019534563933,"5":-0.12294208805602845,"6":0.17266888590388688,"7":-0.19206054533364642,"8":0.017783173491285796,"9":-0.025185101493565128,"10":-0.06847470619808943,"11":-0.022403628858294816,"12":-0.05005781186392067,"13":0.10916817085767486,"14":0.0422036815296665,"15":0.05764194009600998,"16":0.036239878706051235,"17":-0.04205723578993797,"18":0.0642866020396855,"19":-0.06567327050235151,"20":-0.15825417508814227,"21":-0.047457206477294255,"22":-0.05329945567179258,"23":-0.03655425636264599,"24":0.03603912889184148,"25":-0.042089100946722344,"26":-0.023302673906849213,"27":-0.12031110744296288,"28":-0.0945886793966768,"29":-0.004188292703033698,"30":-0.05512515748212061,"31":-0.005372226202813711,"32":-0.042911707645198735,"33":-0.028561859088546495,"34":-0.02888627314123679,"35":-0.05847854083979797,"36":-0.0014786576064470594,"37":0.03905551946312709,"38":0.02117329037376348,"39":0.023382315112434795,"40":0.07566983611497113,"41":-0.032662185980627714,"42":0.06665741427153304,"43":0.006250043965947171,"44":-0.09291130643892428,"45":0.008158185563836772,"46":-0.15017012382151934,"47":-0.09895114408996186,"48":0.0924095218527293,"49":0.07299709634997219,"50":0.003095495180370557,"51":0.07019215350822332,"52":-0.005955543841830256,"53":-0.06999207130226151,"54":0.16446617510166317,"55":0.058223921060845125,"56":0.02458432994953996,"57":0.006768009497785191,"58":0.12198078732095663,"59":-0.039301003837925425,"60":-0.008328486639497808,"61":-0.10078055744098506,"62":-0.02521640739631782,"63":-0.09501884255317514,"64":0.036403808683066974,"65":0.10209315609070767,"66":-0.07110622436306242,"67":0.0506712210216089,"68":-0.021170360352950817,"69":-0.014313188960235214,"70":0.04039222793920725,"71":0.06908422401029664,"72":-0.00043030792294529246,"73":-0.11541852943497645,"74":0.15108999092642292,"75":0.027327379916070003,"76":0.06710740339624736,"77":-0.1080286347338045,"78":-0.03621893967455896,"79":-0.07398731786748326,"80":-0.08799731782079583,"81":-0.019676831484314358,"82":0.060790460252833266,"83":-0.09663135118761479,"84":-0.10371605276286897,"85":-0.03120703432924569,"86":-0.09186022117653728,"87":0.034874481829155334,"88":0.013771939939991389,"89":-0.023043973459314568,"90":-0.0400022040953534,"91":-0.005438773333667807,"92":0.04277045088148581,"93":0.030992334608629355,"94":-0.002266794736669315,"95":0.07320904738881284,"96":-0.07457443209270023,"97":0.14017197599362335,"98":0.042285405886466766,"99":-0.10867492672766164,"100":-0.005579748541413192,"101":-0.007883515671358815,"102":0.03489661254590794,"103":0.054029019830562054,"104":0.10494134811427404,"105":-0.02633266628540164,"106":-0.04933595899388066,"107":-0.015472768667867403,"108":0.09251434700331455,"109":0.1437541060386014,"110":0.057327060359120226,"111":-0.024542098487060217,"112":-0.06316166793894003,"113":0.04575329162113775,"114":0.028308338537470976,"115":-0.011149787929403895,"116":0.027778208233836022,"117":0.011829129297686852,"118":0.0821804413090588,"119":-0.12895134909180136,"120":-0.0567888676474611,"121":-0.08554133075211001,"122":-0.02551499670357042,"123":0.022136737706239317,"124":-0.020546131688346396,"125":0.046546304116045836,"126":0.06857946243270098,"127":-0.06494134857387768,"128":-0.13576719954171604,"129":0.02416366388744821,"130":0.01271533557035838,"131":-0.02758626712324794,"132":-0.03310976379348535,"133":0.012831516206066105,"134":0.01105907115179208,"135":0.08025259719519949,"136":0.052704933325880145,"137":-0.017856019823754614,"138":0.054564971265622604,"139":-0.024616158695892214,"140":0.006951293316097431,"141":-0.04813344905918141,"142":0.023974411031544955,"143":-0.04314339903991126,"144":-0.03180263496713541,"145":-0.04134033775433421,"146":0.027263976557943076,"147":-0.11196756858594287,"148":0.0944500668971888,"149":-0.11015984747994328,"150":-0.0816037678475823,"151":0.05423388274952892,"152":0.04622901493194261,"153":-0.04770962884696418,"154":0.053692706313420956,"155":-0.07463437068799897,"156":-0.04123198603539406,"157":-0.11052107461567866,"158":0.02510155955789469,"159":-0.08673407080194132,"160":0.03230009184932742,"161":0.07760665609168463,"162":-0.06925603472565121,"163":0.06505352927588191,"164":-0.019983847965865602,"165":-0.01794521718569259,"166":-0.03109612230716224,"167":0.048549941132141845,"168":0.08242553457383836,"169":-0.08624000190555636,"170":-0.02104377614442404,"171":-0.028253188188425368,"172":0.008472486041477916,"173":-0.1113095917599167,"174":0.0036465125678762553,"175":0.08965832508071206,"176":0.08222082724433488,"177":0.07654602183568995,"178":0.09580516710601882,"179":-0.06898027680035895,"180":0.018044805616954037,"181":0.017185782973597692,"182":-0.05915533121731434,"183":0.0013267694528762166,"184":0.0545390163138944,"185":-0.00603224255991362,"186":-0.07085242595905089,"187":-0.08923239835668333,"188":0.1887177133309375,"189":0.032849916142287175,"190":-0.11441643667046679,"191":-0.0518027668144077,"192":-0.18454140830697993,"193":-0.041637998318079406,"194":0.05741475130095294,"195":-0.00942330165132949,"196":-0.048753665346169886,"197":0.07176770896938538,"198":0.08110650673193417,"199":0.0023210537762274916,"200":-0.08581323797618527,"201":0.042509828709962026,"202":0.047801081765798885,"203":-0.020177184152398782,"204":0.051747956753870575,"205":-0.017228996491180107,"206":-0.03512745306055446,"207":0.010898883432842628,"208":0.0024239229040862696,"209":-0.08609704237350198,"210":0.00508068868965281,"211":-0.04554793461817388,"212":-0.0641454893573517,"213":-0.01589267590498132,"214":-0.06321834521878059,"215":-0.06557062321587656,"216":-0.03383696252444582,"217":-0.017188706081601293,"218":0.042541659052502845,"219":0.04276829077154757,"220":-0.03408449419094088,"221":0.11517264620389624,"222":0.017380371646454715,"223":-0.010891957480037184,"224":0.03556028950273727}},{"sx":3,"sy":3,"depth":25,"w":{"0":0.013554407766575132,"1":0.0443644044368746,"2":-0.07104368524722691,"3":0.03394960925683097,"4":-0.05334572864783074,"5":-0.0059457190394613425,"6":0.06167561269673552,"7":-0.007108592228292068,"8":-0.057862103705605156,"9":-0.06561275501822529,"10":0.020131945940013215,"11":0.08324331270983099,"12":0.05374631114436456,"13":-0.06505290026429737,"14":0.18219325259261246,"15":-0.018927583225129153,"16":0.03689948115377674,"17":0.04544067077388634,"18":0.11685232091156489,"19":-0.03334488845277293,"20":-0.14955154826951197,"21":0.0400753508148454,"22":-0.01687331893658172,"23":-0.017331947235090368,"24":0.05173832704732468,"25":0.07300206076569403,"26":0.0476959764651272,"27":0.04830829576722822,"28":-0.08547003819366172,"29":0.019005585681741155,"30":-0.0989636058043264,"31":-0.02395733172004073,"32":-0.06547056002275961,"33":-0.13829716328368713,"34":0.016116249145679447,"35":0.1748353643700628,"36":-0.005639010800890665,"37":0.015207136529160524,"38":0.04612816365974846,"39":0.029478576287533028,"40":-0.016269272070817704,"41":-0.05728224123988227,"42":-0.023687432531891695,"43":0.023751002907665637,"44":0.054067461094310175,"45":0.017889925388883916,"46":-0.0334602727297144,"47":-0.029059213670595673,"48":-0.06845704067498859,"49":-0.17851707020498236,"50":-0.06956310258565997,"51":0.07012328888996877,"52":-0.07248257489820296,"53":0.06773874508938071,"54":0.0992034552167534,"55":0.000503237300874369,"56":-0.015794328009102142,"57":-0.06102147884472638,"58":-0.06225215021340827,"59":-0.08036424216615436,"60":-0.053934507910748435,"61":0.023987777597691225,"62":0.03267513343197971,"63":0.07976396622311824,"64":-0.14249967631693733,"65":0.04951622223610876,"66":0.014648953320303785,"67":-0.07170244786247099,"68":0.1494938504078681,"69":0.04765592976159052,"70":-0.06510520893393976,"71":-0.05059511260456726,"72":-0.04650841947304,"73":-0.03445295996518348,"74":-0.04859204245983904,"75":-0.1039297113646345,"76":0.11186289144948319,"77":-0.04970132929994878,"78":0.06379180235864348,"79":-0.006379747617130105,"80":-0.05711446789024067,"81":0.13541372698030063,"82":-0.07505355130622424,"83":0.01255449846667728,"84":0.10242267320955156,"85":-0.0060783527409704625,"86":0.07452324930613988,"87":-0.017310378029912973,"88":-0.053330653793270885,"89":-0.02572647063179269,"90":-0.025942240863167595,"91":0.045318176434972185,"92":-0.002399853769456779,"93":-0.038509930122059055,"94":0.17173478447866408,"95":-0.09217152073908104,"96":-0.03598436217934508,"97":-0.004687125955764374,"98":-0.03623006003665146,"99":-0.09067735488909599,"100":-0.02055301081017732,"101":-0.013782177339076405,"102":-0.0619468334975327,"103":0.04542193031625884,"104":-0.034568640491498076,"105":0.039148940773322524,"106":-0.0462648005455093,"107":0.01720066507864075,"108":0.10439951036037688,"109":0.07299597314419669,"110":-0.05585699279790954,"111":-0.0005130841613515717,"112":-0.07128707680730773,"113":0.04669442346420479,"114":-0.0455518016207786,"115":0.09001108608314973,"116":-0.008364659395223642,"117":-0.021058627391829517,"118":0.06324653974939229,"119":0.05264483119047917,"120":0.06165031329548982,"121":-0.010352809289849342,"122":0.11856760150130424,"123":-0.05986941102776454,"124":0.039759045016755645,"125":0.0793033288897654,"126":-0.03528738831138312,"127":0.01574424760765742,"128":-0.07571239200747626,"129":-0.040186664177516,"130":0.00625838804362721,"131":0.018724338139702715,"132":-0.013229396275342137,"133":0.027005933424853103,"134":0.057978522880440975,"135":-0.03464691380200607,"136":-0.07994309590854842,"137":-0.06252997143666499,"138":0.02874750001904981,"139":0.09774423850628967,"140":-0.11468171254261662,"141":0.06780279579964973,"142":-0.027935315504925562,"143":-0.01423894482148569,"144":-0.02817210518135098,"145":0.06254039861331592,"146":0.028970237607919894,"147":0.049212436345523025,"148":0.04652075634228603,"149":-0.04755332949549706,"150":0.022294976801080297,"151":0.037880375942538846,"152":-0.07146273041682934,"153":-0.020993232199920005,"154":-0.01766628080844296,"155":-0.12244865144179139,"156":0.03502553449960425,"157":-0.004106667635136628,"158":0.04047196064137009,"159":0.009993737238640462,"160":0.037197962991658284,"161":-0.011179798135009609,"162":0.03220655268339822,"163":-0.13596752966938772,"164":0.0517151770938722,"165":0.0801509186397817,"166":0.13858114004015668,"167":-0.06138461177068512,"168":0.06153682997114573,"169":0.04493237250162844,"170":-0.050295656183468214,"171":0.06974251184094482,"172":0.05882120271636598,"173":0.01628678127855343,"174":-0.04915914484913355,"175":0.07100754228442357,"176":-0.032487367349794884,"177":-0.03878332022641366,"178":0.16893184502546207,"179":-0.1573167434501871,"180":0.0405125515543761,"181":0.028061927876940354,"182":-0.07500934762872237,"183":0.09766125229269769,"184":0.008832841605254415,"185":0.0030358247235731466,"186":0.062347906862673615,"187":-0.03766132665587846,"188":0.022778861135207565,"189":0.018816405441359242,"190":0.03432236955594525,"191":-0.08845141603286694,"192":0.049466648495749166,"193":-0.030716497936588504,"194":0.03998374271489927,"195":-0.011274768714969902,"196":0.01671490646775256,"197":0.10600024032251089,"198":-0.07094276031929406,"199":-0.06642089435907844,"200":0.005530652601199565,"201":-0.029469790303993163,"202":0.12170251238626836,"203":0.014212437093081927,"204":-0.003710966483290223,"205":-0.08317064264814217,"206":-0.10610628553526273,"207":0.00852621720495799,"208":-0.04575631790052356,"209":-0.020670919842404174,"210":-0.07362542741224712,"211":0.008614431469109056,"212":0.037572540420045,"213":0.02356415372436645,"214":-0.14710237874922605,"215":0.06816932109389864,"216":0.07387844611412504,"217":0.09929723930120174,"218":-0.022504187393102656,"219":-0.03732839656170203,"220":-0.05383952584483486,"221":0.15361871420336928,"222":-0.11810637007360182,"223":0.08391665107409514,"224":0.10093060531882005}},{"sx":3,"sy":3,"depth":25,"w":{"0":-0.0066006822121501,"1":0.046540389692647954,"2":-0.007963084642340931,"3":-0.08352213407568676,"4":0.005089150165863896,"5":0.0022130895353320644,"6":0.0069492499096413625,"7":0.033961082157321416,"8":0.08972125705556355,"9":0.04939354871711818,"10":0.021269758881690616,"11":-0.009219222732850708,"12":0.004555248316422723,"13":0.010740772893752469,"14":0.050978519655960015,"15":-0.11203807340391156,"16":0.04878607679709253,"17":-0.07093003953515513,"18":0.0009078422977503244,"19":0.19032157506790498,"20":-0.07361380228387285,"21":0.02275886751267074,"22":0.043341726962827586,"23":0.10245896327704272,"24":0.06993757627602015,"25":0.06049653461630125,"26":0.06247859169548443,"27":0.05240619260961831,"28":0.12297512517853645,"29":-0.1478245108748503,"30":-0.029798763943216254,"31":-0.015467009567815484,"32":0.12978736464350213,"33":0.043490230038227766,"34":0.0067064198077166305,"35":0.038448347501449334,"36":0.05740321649578227,"37":-0.12619604836482606,"38":0.16875755908947773,"39":0.12516278058238545,"40":-0.046577194067995084,"41":0.06903937574996964,"42":-0.08271110355404306,"43":0.02866079945876875,"44":-0.12870682855873558,"45":-0.013209712918797809,"46":0.1261989185096541,"47":-0.013478873886016129,"48":0.07788257349605247,"49":-0.021145383579955473,"50":-0.014661631618106657,"51":-0.1062746567865578,"52":0.0217323217780678,"53":0.06107378062537773,"54":-0.12653729943726935,"55":0.014000014449735308,"56":-0.01716457143836043,"57":-0.09796601442630704,"58":0.14500401962956783,"59":-0.0006629427084868067,"60":0.23041135120576722,"61":-0.02293465676192908,"62":-0.07051662985153517,"63":0.007954905402288576,"64":-0.04781695903586923,"65":0.06112957508135681,"66":0.02088082859761815,"67":-0.1261937495174409,"68":0.015249882223472478,"69":0.04191575544403849,"70":0.003636861211128079,"71":0.05528676095936336,"72":0.014881225454027517,"73":0.028097370112661866,"74":-0.016226020823879375,"75":0.029029518310335855,"76":-0.00781818109882371,"77":0.026868002942672106,"78":-0.0215121109078127,"79":0.02483085245929317,"80":-0.03970084172258423,"81":0.03519286373047439,"82":-0.09185388240520398,"83":-0.05554564283650802,"84":-0.04553550379798131,"85":0.01803669117574453,"86":0.06320841147271601,"87":0.028261597543558295,"88":0.10734659423337607,"89":0.05859642874433996,"90":-0.022025944650991516,"91":0.023136674583388306,"92":-0.04240826668885141,"93":-0.02449754740007476,"94":0.08280158736502637,"95":0.020327065493842507,"96":-0.0512763726766586,"97":0.009537094471749908,"98":-0.04600611081953281,"99":-0.09922689876845896,"100":0.02459972947375389,"101":0.043232944472320095,"102":-0.05243680873930358,"103":0.021028225454398492,"104":-0.08754360378595637,"105":-0.05108770345349571,"106":0.05554080791448787,"107":-0.12475002145968961,"108":-0.009406420634667168,"109":-0.030875652896393782,"110":-0.04900537769036006,"111":-0.024324543346129993,"112":-0.0025724198142401816,"113":-0.10528717867905488,"114":-0.07280336983518841,"115":0.06157584895700373,"116":0.04638337536399778,"117":0.053762172119496326,"118":-0.1394865633672419,"119":-0.03579276592715931,"120":0.03646514589495553,"121":-0.015543611660656565,"122":0.04256361695509702,"123":0.062214558287193134,"124":-0.05914324645530478,"125":0.03784737183550548,"126":-0.09056794699064978,"127":-0.0219454116628135,"128":-0.03077821335206707,"129":-0.08007833456911755,"130":-0.0365949944858359,"131":0.11088071797223582,"132":-0.058527248843981916,"133":0.00844423700292809,"134":-0.06135024182370464,"135":0.06963064973086812,"136":0.05113711513051263,"137":-0.09637259193384963,"138":-0.04081059159986727,"139":0.044995452849728,"140":0.05702613436050489,"141":-0.013923953592646513,"142":-0.0062846926290253645,"143":0.030665409952826253,"144":0.07628832350118275,"145":0.004504439594295507,"146":0.10414654882747332,"147":0.08131116530047003,"148":-0.013068496054902273,"149":0.007467539887969197,"150":0.06078625496927467,"151":-0.0014110399900111117,"152":-0.10377063925110548,"153":-0.003958425224251103,"154":0.04380081987362238,"155":0.0619985067650638,"156":0.003885877242694847,"157":-0.0879890693024798,"158":-0.1609137950257565,"159":0.06214151625289924,"160":0.04364289472841043,"161":0.005364797482018098,"162":0.014527330426333826,"163":-0.08920969163609853,"164":-0.04366339397317218,"165":0.08285168281910145,"166":-0.12286347913263929,"167":-0.08059495223622468,"168":-0.046900968912151716,"169":0.015039917666588699,"170":0.005758524907864106,"171":-0.12036625058531868,"172":-0.050551776989507545,"173":0.1127583903712799,"174":0.04898077154810329,"175":0.016495732975971712,"176":-0.026820749905940886,"177":0.09423656542868575,"178":0.1776630819946772,"179":-0.013022537723384768,"180":0.013685288966875916,"181":-0.075560937192073,"182":-0.03352030371787166,"183":0.10388903011705279,"184":0.06117000494961754,"185":-0.05179758683522102,"186":-0.015704031814026978,"187":0.07404408750366313,"188":-0.0043034247656848525,"189":0.022813065687417994,"190":-0.07174470760839695,"191":0.0347962608760455,"192":0.05681583558700137,"193":-0.005826666092371177,"194":0.013270508004024387,"195":-0.05257156034005466,"196":0.007610758959600199,"197":-0.048188324853058,"198":-0.05154862904883182,"199":0.0059254333358993595,"200":0.05099355966260203,"201":0.04405663730579345,"202":-0.08715276516711265,"203":0.013302740003549918,"204":-0.001462088816585299,"205":-0.09155265527230984,"206":-0.021102235846401633,"207":-0.06871752532322553,"208":-0.05684470054384429,"209":-0.06295207560684243,"210":0.05010402488267171,"211":0.04945737848412711,"212":-0.05195241260005465,"213":-0.038282230821769014,"214":0.04778698633487427,"215":0.1198903345042239,"216":-0.058376669585933814,"217":-0.04044485874407593,"218":0.01721870623763273,"219":0.013813139925924775,"220":0.020005522855398753,"221":-0.04600689114898316,"222":0.06238964102771555,"223":-0.048708017703147664,"224":-0.1183459348421203}},{"sx":3,"sy":3,"depth":25,"w":{"0":0.009065444315513349,"1":0.0378843162337111,"2":0.041577492179279404,"3":-0.10951229826227228,"4":0.08498392475837932,"5":-0.035770701530038605,"6":0.05627179980947034,"7":-0.11560238057096948,"8":0.12006274502573135,"9":-0.07937466749226064,"10":0.1679709923028626,"11":0.05693454374167849,"12":-0.0877370526211672,"13":-0.010499000536456955,"14":0.0051903601934587,"15":-0.004861420721328884,"16":-0.03519668794934901,"17":0.01945998406006429,"18":0.0010066054065096264,"19":0.03694463557725316,"20":-0.0669089933718758,"21":-0.012372159699939742,"22":-0.15793664546778852,"23":-0.16011448417455743,"24":0.02321903741401609,"25":0.1013677752663618,"26":0.0672023293285037,"27":0.08715395279307281,"28":-0.0001856439411997509,"29":0.04454067355273802,"30":-0.11814077886687777,"31":-0.0808662612984071,"32":0.038738249359445046,"33":0.029479816030628523,"34":-0.04097123167796259,"35":-0.08570300549439874,"36":0.08123476777364833,"37":-0.04082452634438872,"38":0.18332581767502948,"39":0.056244986904367605,"40":0.03834449350419296,"41":0.02286801349529304,"42":-0.01224423753454669,"43":0.01807948429821692,"44":0.007473618534731304,"45":0.12430139304369626,"46":0.010356287211698192,"47":0.059909165006766,"48":0.00978314513448493,"49":-0.03251499197092263,"50":-0.06389999837985738,"51":-0.014358254081038439,"52":0.02134341908861687,"53":-0.09730931218929678,"54":-0.14627766981799387,"55":0.12873594789898765,"56":0.06281436441510461,"57":-0.011901123604733443,"58":-0.0826595864348722,"59":0.00811913476497025,"60":-0.033945554472758474,"61":0.010822508940784386,"62":0.0015879475817818245,"63":-0.048966411061363437,"64":-0.04110268974578505,"65":-0.1292370906312069,"66":-0.039868912124780415,"67":-0.024205382218281096,"68":0.019666769916718008,"69":-0.06749081041984313,"70":-0.016669606839558763,"71":0.03857456959475905,"72":0.016471913320504523,"73":0.03672940855681475,"74":-0.052214200598779466,"75":-0.05763704789205208,"76":-0.04394676443898382,"77":-0.04486374394537815,"78":-0.03916956906183556,"79":-0.019057518004366395,"80":-0.08629605293709709,"81":0.030483547853566984,"82":0.05959032142614512,"83":-0.05757021497598061,"84":0.022105225798815673,"85":-0.030871184579304187,"86":0.11677223148250036,"87":-0.09899143287599863,"88":-0.07793173797064123,"89":-0.1484601039339035,"90":0.005836521974979278,"91":-0.06793060621046268,"92":0.030430576731311967,"93":0.1415252625258442,"94":-0.017349876834274962,"95":0.014254268261772429,"96":-0.1673583340397666,"97":0.13885730167293625,"98":-0.047934142121655816,"99":-0.062279926052473,"100":0.022578696300462824,"101":-0.03927027398111497,"102":0.11086872858487641,"103":0.05837738569333974,"104":-0.09237521666296533,"105":-0.07677166277647969,"106":0.06672313960155506,"107":-0.005687211827143051,"108":-0.17932291315966578,"109":-0.052890438819005535,"110":-0.08173624414558955,"111":0.03887009747156809,"112":0.020513722092769877,"113":0.030368973426649935,"114":-0.11101535933232519,"115":0.09606404951586243,"116":0.11543274455373527,"117":0.04636698603274789,"118":0.03954882594099378,"119":-0.07001607076966336,"120":-0.08851809418607567,"121":-0.04622699815493906,"122":-0.06295628506244383,"123":-0.016938971719310882,"124":-0.014572562340273343,"125":-0.013837339171217844,"126":0.05641833667364277,"127":0.046883395369861004,"128":-0.06247572598023509,"129":-0.06482320153450374,"130":-0.023276039913134206,"131":0.09811980589683962,"132":0.01897313979074003,"133":-0.02644735491183678,"134":0.009670312038580792,"135":0.02511607573015437,"136":0.12805773495790673,"137":-0.05159546153632664,"138":0.055463438709032996,"139":0.01397882537675524,"140":-0.03754406793878295,"141":0.02409944686706171,"142":-0.0038024362647259345,"143":-0.018384675457655736,"144":0.1263130047141657,"145":0.01628987099804942,"146":0.017166853344207363,"147":0.11321420780730729,"148":0.04583432970965772,"149":0.061914693059313845,"150":0.016381005603966933,"151":-0.07794494025838343,"152":-0.07450029438912956,"153":0.05911355525599416,"154":-0.023366396336419456,"155":0.023285936371807276,"156":-0.008820763170281217,"157":-0.06517759057056209,"158":0.045260791502932635,"159":-0.050005405537652634,"160":-0.04323071283314555,"161":0.04640190614840861,"162":-0.033442522362191224,"163":-0.04632224869616328,"164":0.032255267024339694,"165":-0.04542155798059074,"166":-0.032393511118245816,"167":0.037455678519385895,"168":-0.06256853756913333,"169":0.06271994201056968,"170":-0.02886144991475104,"171":-0.020745876137287785,"172":0.03751552550774796,"173":-0.07591055496196211,"174":0.07106304699150084,"175":-0.03600003347656387,"176":0.15293064087531172,"177":0.03947041463438163,"178":-0.005798498625214876,"179":-0.05389441113959687,"180":-0.02604151846993342,"181":0.06981705680675585,"182":0.13725934077194046,"183":-0.02570470426792011,"184":-0.03409704806349279,"185":0.05168036349397988,"186":-0.007683676523458459,"187":-0.0483512824857029,"188":-0.041924923585534644,"189":-0.033065599649880775,"190":0.0637575046691318,"191":-0.015560633913353468,"192":-0.016244788569517055,"193":-0.14891469333012144,"194":-0.04562762910093125,"195":-0.0068233769860034585,"196":0.006335999926911025,"197":0.1185246657749414,"198":-0.002428382509317073,"199":-0.007529618130651373,"200":0.028246284229992567,"201":-0.01162182608130553,"202":0.06317722198537466,"203":0.04730820086369068,"204":-0.10073851694404036,"205":0.00046984909620976915,"206":0.06375715676983573,"207":-0.005844561182300686,"208":-0.005477485666976707,"209":0.010044166846269294,"210":-0.10904456705232501,"211":-0.05609430785273453,"212":-0.0002874819181314295,"213":-0.06555798046838056,"214":-0.05062650579341012,"215":-0.003796546674808603,"216":-0.0025325879865632783,"217":0.060453725821388006,"218":-0.11376049197318848,"219":-0.08129108910531377,"220":0.017417580718679982,"221":-0.0677331470943432,"222":-0.028884810888288818,"223":-0.0959283284328412,"224":0.07137555739853271}},{"sx":3,"sy":3,"depth":25,"w":{"0":-0.019248323201717595,"1":-0.004962747781979768,"2":0.045997922768024994,"3":0.1596297698537809,"4":-0.052273706010723994,"5":-0.08259337550558575,"6":0.013485955389954004,"7":0.09308404513212924,"8":-0.03351643758951092,"9":-0.06671147853389667,"10":-0.04522695830873742,"11":-0.07610446559418177,"12":-0.039460599831993064,"13":0.011979089856372619,"14":0.05473873111798192,"15":-0.009732007823802567,"16":0.05473972120843727,"17":-0.05100453921988598,"18":-0.09930184526929729,"19":0.14030032203231851,"20":-0.04241877064840073,"21":-0.07437983926060027,"22":0.009937517770493464,"23":0.09362997206894998,"24":0.03588922290878372,"25":-0.060982687150751454,"26":0.11166754745792035,"27":0.012805852512104813,"28":-0.08524129852857153,"29":0.0695409456216725,"30":-0.025825803238404468,"31":-0.04287729310162107,"32":0.011454702923269455,"33":0.07058634075174636,"34":-0.09223909870645967,"35":0.007773962988062889,"36":-0.004896487405924361,"37":-0.07244402472524923,"38":0.013005229188765947,"39":-0.026150283607207486,"40":-0.07226673729543819,"41":0.07202841392254954,"42":-0.0586180755546616,"43":-0.07082783444488264,"44":-0.03021132474159807,"45":-0.059615637093128615,"46":0.008570141916520595,"47":-0.02271254866332678,"48":0.002302487759401076,"49":-0.049785949794281616,"50":0.02884905112905316,"51":0.005738846170185829,"52":-0.029405156766884627,"53":0.11782112987896136,"54":0.002216235559278196,"55":0.019911116985772432,"56":0.03403331310835145,"57":0.11028306933263651,"58":0.03438956137569842,"59":0.012882232939411235,"60":0.03779050933640202,"61":-0.08807961667063971,"62":0.08730592261843326,"63":0.16003817606866574,"64":-0.016667060779791725,"65":-0.03227964889860847,"66":0.048226602681734086,"67":0.02662390209153461,"68":-0.037435940688256605,"69":0.06333220078064727,"70":0.013849893408616773,"71":-0.05645531870766131,"72":-0.031986337311035354,"73":-0.0367697152500928,"74":-0.04002437322391087,"75":0.045298101301887314,"76":-0.025392301860804628,"77":-0.12140429904528635,"78":0.051990602576037194,"79":-0.04612162969927546,"80":0.11582820433722561,"81":-0.043102466179857093,"82":-0.1355094228068001,"83":-0.050723479629259154,"84":-0.03141519836527337,"85":-0.13610609550143804,"86":0.005884377205947661,"87":0.009248039576217096,"88":0.017481600474329693,"89":0.056927343412024475,"90":-0.05105831859220152,"91":-0.09257582718376264,"92":-0.058470821615334886,"93":-0.06359904902364254,"94":0.005124557256440397,"95":-0.014641636751361145,"96":0.01580191602527636,"97":-0.07843041126291195,"98":0.04810843947994627,"99":0.04017384637846152,"100":0.06154027525546138,"101":0.0073795890452955535,"102":0.04574243151314203,"103":0.007587675402666478,"104":-0.04743141338418835,"105":0.07676579070596712,"106":0.005147712318495716,"107":0.021117518826582266,"108":0.10328376361938754,"109":-0.019193192034970517,"110":0.07910672181766022,"111":0.10591347564952433,"112":0.008495249516937538,"113":-0.04588104407328155,"114":-0.01562931279496003,"115":-0.07642640518666044,"116":0.10333617860394877,"117":0.10364852216391697,"118":-0.133475805563904,"119":-0.020953239075056,"120":-0.05248012774391839,"121":-0.09606783876503917,"122":0.022695432006271023,"123":0.04092948301225894,"124":-0.07277855031905882,"125":0.057929316924665845,"126":-0.073083876166895,"127":-0.026951130938312067,"128":0.1634853406362552,"129":-0.00265352494671066,"130":-0.021277754570027306,"131":0.09030120266789302,"132":-0.0691959653181174,"133":-0.05486199053541076,"134":0.009394570105282492,"135":0.11994639248013524,"136":-0.033085756620746476,"137":0.06932207420450479,"138":0.13513842711442814,"139":0.025165697796879962,"140":-0.05295716012670631,"141":0.04860684854122907,"142":-0.004446222870012961,"143":0.04678755474784736,"144":0.04482398724847246,"145":-0.005857888709603673,"146":0.03135957146432819,"147":0.06256472572138609,"148":-0.0046015039852322385,"149":0.10536445867070644,"150":0.13106013336544647,"151":0.0036665677845231916,"152":0.05153706774333408,"153":-0.0019815196429248828,"154":-0.027884937911238358,"155":0.0051943054064773125,"156":0.04372321791272517,"157":0.040920503775277395,"158":0.06830875057238146,"159":-0.027523117887029783,"160":0.07593653009459729,"161":0.050830555408742685,"162":0.013044021446316292,"163":0.05304520646362795,"164":0.11737368784323664,"165":0.09350701318933648,"166":0.14472297140245088,"167":-0.04079233799170567,"168":-0.12141766055448226,"169":0.039976801752716,"170":-0.00910996997176862,"171":0.12328729847488505,"172":0.035138754561430785,"173":-0.034298087078241044,"174":0.015621895892676988,"175":-0.024567686140645847,"176":0.04283092009079897,"177":-0.04234563576207276,"178":0.06599341718173476,"179":-0.006231722232907579,"180":-0.11857084932510817,"181":-0.04807972584265289,"182":-0.07710589641462955,"183":0.03402063006669061,"184":-0.11180198620386207,"185":0.06317438268265715,"186":0.23490714946163446,"187":-0.027186015447487447,"188":-0.08394939947112366,"189":0.06838865315621276,"190":-0.013784438260817856,"191":0.045855910599724506,"192":0.022872914272409343,"193":-0.06522737164731011,"194":0.05189094702089914,"195":0.04106311581869923,"196":0.04573025967022678,"197":-0.015582345325243609,"198":-0.07168486460351225,"199":-0.04023388919723344,"200":0.028627929047897117,"201":0.0233650092340314,"202":-0.06689948762600136,"203":0.0497315009367642,"204":-0.09397651549269069,"205":-0.004395717023053032,"206":-0.018462237760806213,"207":-0.04652601710358326,"208":0.002946841977014497,"209":-0.008321685697659337,"210":-0.09505755322151918,"211":-0.18466155382978888,"212":0.02211244930494298,"213":-0.04134419210979524,"214":-0.04411603102128625,"215":0.09382907543404102,"216":-0.048092067521420756,"217":-0.12461129640372202,"218":0.05651945884019451,"219":0.016563606049658494,"220":0.06048260775978914,"221":0.009316329112500245,"222":0.08305562951546767,"223":-0.097779946262413,"224":0.042599187834484825}},{"sx":3,"sy":3,"depth":25,"w":{"0":-0.019829282104488054,"1":0.02575026133546761,"2":0.001015838846127636,"3":0.05382685710099281,"4":0.19251360407504148,"5":-0.049978555863162494,"6":0.014734718298171376,"7":-0.028634105055788443,"8":-0.02267343779998017,"9":-0.043040414934472276,"10":-0.038795747004801984,"11":0.035229090023761095,"12":-0.028460756329600528,"13":-0.05367616520165857,"14":-0.0255779916195512,"15":0.016034240470944466,"16":-0.05998163863527705,"17":0.006722484832163253,"18":-0.04808681735341036,"19":0.0017943418802522856,"20":-0.02600916673059305,"21":0.11821384913181375,"22":0.08525225573821807,"23":-0.007519142875549729,"24":0.03250993980948956,"25":0.04241939956487929,"26":0.002072832630961562,"27":0.07615480987870271,"28":-0.04175900822536337,"29":-0.016676116671872836,"30":-0.038729113124367776,"31":0.07591958093101153,"32":-0.011151629350365472,"33":-0.0766992883886911,"34":-0.0845803994967882,"35":-0.06045494535284247,"36":-0.053641167335562207,"37":0.10869933199211254,"38":-0.14766287298376898,"39":-0.0657380877325353,"40":-0.09386647600806829,"41":-0.07820982590194947,"42":-0.06594206389612621,"43":-0.03164960628239544,"44":0.0674201291852225,"45":-0.07172205452042742,"46":0.014602370944414618,"47":-0.001074334638385216,"48":0.13752853927687936,"49":0.011349759110805121,"50":0.009815648730010621,"51":0.06384740597853425,"52":-0.07869741278531156,"53":-0.012638441802302062,"54":0.021471007202819813,"55":-0.002080955783225811,"56":-0.05143778927116614,"57":0.04667221665213035,"58":0.006732530425190124,"59":0.04868636077912724,"60":-0.003174835916968175,"61":-0.09750059982148801,"62":0.007459040366770669,"63":-0.0297831739005839,"64":-0.12246645783917573,"65":-0.076895013709289,"66":0.09455956473865666,"67":0.027784257532444293,"68":0.0011126381951488188,"69":0.02132770328423384,"70":0.11788953174378537,"71":0.06275778706773169,"72":0.022584085718159126,"73":0.07001802934610066,"74":0.0012048977689205302,"75":0.08459965158564887,"76":0.06227704991707752,"77":0.021133988628047995,"78":-0.007504258698534445,"79":0.058934842437256975,"80":0.04220553321354526,"81":0.060670301964106006,"82":0.051474495206348586,"83":-0.018352280087782686,"84":-0.01575500897597934,"85":0.0733775954266207,"86":0.041638465099743165,"87":-0.0726359873847034,"88":-0.09944718156493335,"89":0.1159704283738934,"90":-0.08458774364237483,"91":0.08235663848140415,"92":0.1551125822964744,"93":0.16040872880407764,"94":-0.013691864454711844,"95":0.01140441613904999,"96":-0.04155671070527611,"97":0.023113791083044514,"98":0.04050995010907719,"99":-0.007737563092037705,"100":-0.05632270724155881,"101":0.009970134473404,"102":-0.06603347534396409,"103":0.05896473313019166,"104":-0.016053217784400192,"105":0.10708609138245172,"106":0.007022570710595129,"107":0.02084857988272795,"108":-0.066270365717119,"109":0.018100681734586267,"110":-0.04702981838305348,"111":0.06181386953580416,"112":-0.12070459758355254,"113":-0.018088724584704247,"114":-0.001975196665205791,"115":-0.05845153247114744,"116":0.06973201836728951,"117":-0.0024070162389814333,"118":-0.028593649147178973,"119":-0.13230650513548123,"120":0.07839739550136153,"121":-0.015716002041528534,"122":-0.003402441824254956,"123":0.06998385111823782,"124":0.017204706193006326,"125":0.01547971489379984,"126":-0.009800605418786041,"127":-0.10466896584194271,"128":0.013275964383245197,"129":-0.002863198275745439,"130":-0.017393361048949472,"131":0.07649059278530727,"132":-0.00866515030313157,"133":-0.03931116140195989,"134":-0.06034333426542823,"135":0.05336528067625194,"136":0.06083626568933214,"137":0.035964284109971295,"138":-0.13505643232492068,"139":0.034604964784330464,"140":-0.1070651594109798,"141":0.00936155643738972,"142":0.019652249534434722,"143":0.14491541517606377,"144":-0.039678968422574235,"145":-0.13942657928185287,"146":-0.05444044360825839,"147":-0.04223715514528,"148":0.041928946258311166,"149":0.04152786351037254,"150":0.024853516621496874,"151":-0.07426928787296774,"152":0.03883141338564121,"153":0.0249381571584254,"154":0.055491629882764,"155":-0.02013146238402592,"156":0.016082346128552104,"157":-0.15420156488836664,"158":-0.002261080642266268,"159":0.05254269293920399,"160":0.11340974340883074,"161":0.046510264971183844,"162":0.03135304522140528,"163":-0.06757254499171647,"164":-0.009705984360779638,"165":0.06632525894927833,"166":-0.05833971842057588,"167":-0.04098410109505274,"168":-0.04700184280325481,"169":-0.03637301480468724,"170":-0.021985265944948863,"171":-0.04316239862261706,"172":0.0363786261282872,"173":-0.017922730290368876,"174":-0.06482060552610062,"175":0.03354223372852362,"176":0.03657365809521817,"177":0.03237557255548117,"178":0.14468846451109013,"179":0.16503819275003945,"180":0.03621467355586004,"181":0.05162112513315509,"182":0.04185793177606066,"183":-0.0343533667900475,"184":-0.0651568195011244,"185":0.0857564149358367,"186":-0.034047364596625634,"187":-0.11571548548599103,"188":0.05640653746858919,"189":0.04671312071281478,"190":-0.017408801231816887,"191":0.012117534292837965,"192":0.06563385533071049,"193":-0.06143610331455047,"194":-0.08438328290126437,"195":-0.10191456627715346,"196":0.0834533817367636,"197":-0.042738137123702835,"198":-0.00624859809573338,"199":0.03665100837274931,"200":-0.13359022772678134,"201":0.04995543745704543,"202":0.06552501724834353,"203":-0.16836623689707614,"204":-0.034648780207634775,"205":-0.03496535810363411,"206":0.02217506115631265,"207":-0.12071205991525996,"208":0.004535885093082856,"209":0.046111418382832295,"210":0.07886314386098743,"211":0.01030207381543726,"212":0.021732684195912396,"213":-0.1222523362309869,"214":0.021881799653055825,"215":-0.02624870690388761,"216":0.08943381836784693,"217":-0.08275375235795861,"218":-0.06012420138959857,"219":-0.06277212569870533,"220":-0.05921191757936326,"221":0.08013781800455645,"222":-0.019437289572573454,"223":0.05668564722064678,"224":-0.08933583305507127}},{"sx":3,"sy":3,"depth":25,"w":{"0":0.03888675172845692,"1":-0.06316401870678953,"2":0.01746483592314676,"3":-0.0499951490971181,"4":-0.06508744809656591,"5":-0.08385663638211892,"6":0.07813993573989879,"7":0.08889272669744472,"8":0.062203358147541944,"9":-0.010827264806985709,"10":0.022291757348861335,"11":0.043349563681680636,"12":-0.057051776915611446,"13":-0.06235603872354438,"14":0.13370496039896096,"15":0.16585148733256513,"16":0.02530123943835127,"17":-0.14642914124178835,"18":0.11833570110639549,"19":-0.04617519811120978,"20":0.051944777371681704,"21":0.06632828556691807,"22":-0.06844483145488713,"23":-0.08953906864632631,"24":0.12350517169377943,"25":-0.11884788863719761,"26":0.05157871505252005,